{"layers":[{"0":{},"1":{},"2":{},"3":{},"4":{},"5":{},"6":{},"7":{},"8":{},"9":{},"10":{},"11":{},"12":{},"13":{},"14":{},"15":{},"16":{},"17":{},"18":{},"19":{},"20":{},"21":{},"22":{},"23":{},"24":{},"25":{},"26":{},"27":{},"28":{},"29":{},"30":{},"31":{},"32":{},"33":{},"34":{},"35":{},"36":{},"37":{},"38":{},"39":{},"40":{},"41":{},"42":{},"43":{},"44":{},"45":{},"46":{},"47":{},"48":{},"49":{},"50":{},"51":{},"52":{},"53":{}},{"0":{"bias":0.05469914080802171,"weights":{"0":0.057024945010298,"1":0.149168356755532,"2":-0.11657656174884357,"3":-0.12919452900833286,"4":0.020251149402201844,"5":0.13608082288784748,"6":0.5506160132869748,"7":-0.739832075425536,"8":0.13448415129258462,"9":0.09190772184765549,"10":0.18458845165304258,"11":0.10811902882078464,"12":-0.06817663582394888,"13":-0.1310753338322616,"14":0.04523926858295407,"15":0.24009641635766546,"16":-0.4726826219100035,"17":0.3625238795214968,"18":0.152398604030188,"19":0.10106725737818265,"20":0.0041548717344727345,"21":0.03779008651676789,"22":0.08814617793471194,"23":-0.27072463446099476,"24":0.28170351552364986,"25":-0.6127131460948655,"26":0.22321264370132216,"27":-0.034948997184589686,"28":-0.034400739482218286,"29":-0.15530378316197377,"30":0.15124583077460185,"31":0.1575291926483806,"32":-0.08964402063564349,"33":-0.1649699118521171,"34":-0.705787248107148,"35":0.13403388551004994,"36":-0.019633430584684183,"37":0.09447471731762531,"38":-0.1730093339153439,"39":-0.1141452595945181,"40":-0.16019087566570261,"41":0.555071695778743,"42":0.13581995221450413,"43":-0.4396243856055821,"44":0.23978804841559956,"45":0.06222484397106631,"46":-0.1341199957715509,"47":-0.12662686573573675,"48":0.11899693364042775,"49":-0.05048661221715693,"50":-0.10668251276921364,"51":0.6922082134054051,"52":-0.28252674323787197,"53":0.11381572531944993}},"1":{"bias":-0.15431026627625985,"weights":{"0":-0.10218446424627566,"1":0.12309920866054032,"2":-0.107768909408604,"3":0.08725670001367908,"4":0.02740237392968195,"5":0.043619716608808,"6":-0.21356368447931282,"7":-0.5596193680311072,"8":-0.5357524816584831,"9":-0.0728870327090643,"10":0.16295766365531728,"11":-0.026810417494229844,"12":0.08147325427424464,"13":0.06454742362725097,"14":-0.029930770635465193,"15":-0.17151826872196999,"16":-0.6025610686806019,"17":-0.14145360219748873,"18":0.08363806178867673,"19":-0.07225280317618082,"20":-0.1715932924619484,"21":-0.00417666649593959,"22":0.007676947164195737,"23":-0.1336571127786175,"24":-0.5517012928701459,"25":-0.3869128671442972,"26":-0.00699398159255038,"27":-0.1485617888852118,"28":-0.13883908638299497,"29":-0.15428315526850078,"30":-0.3127196137855254,"31":-0.11876270166113406,"32":-0.11443912966984347,"33":-0.45723431735445597,"34":-0.493571673495132,"35":-0.19257551122100305,"36":0.18116056610217907,"37":-0.08105473134643489,"38":0.010393197017079043,"39":-0.021509682515126277,"40":0.2492582571057501,"41":-0.10942351522598767,"42":-0.2585620854075402,"43":-0.3006082017218047,"44":-0.6677628493016706,"45":0.12929149912513246,"46":-0.024542012400990385,"47":-0.1356309623659704,"48":0.1266393300068697,"49":0.15246861019507552,"50":0.00383536340142926,"51":-0.19308633855996285,"52":-0.3276736740201788,"53":-0.5890734485942736}},"2":{"bias":-0.19351379023020374,"weights":{"0":0.14353965117618708,"1":0.1780370124793074,"2":0.19239468735268736,"3":0.13969106607369308,"4":-0.059804744798202754,"5":0.08941924955007444,"6":-0.1023102029703249,"7":0.028640596751545084,"8":-0.15221395838555976,"9":0.1884530544291894,"10":0.12972475267173458,"11":-0.09563548277713463,"12":0.10081932127807913,"13":0.10828582247860132,"14":0.015779249645566762,"15":0.08578634653296126,"16":0.0477197625482214,"17":-0.09169231801151514,"18":-0.1734701304428159,"19":0.18562404670981283,"20":-0.009007961626459894,"21":-0.12114330299053021,"22":0.11161834553777476,"23":0.012474083480734099,"24":0.0710867812544325,"25":0.03928059656500476,"26":-0.1084913567073924,"27":0.10247757110917652,"28":-0.1002366059056575,"29":0.026149350796899427,"30":-0.020216051643900515,"31":-0.12638359650828274,"32":-0.06259218370218708,"33":0.0408329858751448,"34":-0.07698876621587995,"35":0.08794913789765504,"36":0.12428477948496576,"37":0.04231612060454611,"38":0.12101659593904222,"39":-0.07485398057603194,"40":-0.11426643582594702,"41":-0.018994851161256886,"42":-0.13389236759698867,"43":0.06872684927790386,"44":-0.19175408811444286,"45":-0.1797316842997553,"46":0.14966328024841832,"47":-0.14765000621762114,"48":-0.13644088884017913,"49":0.05915506153849823,"50":0.14099890858500266,"51":0.06261550421422213,"52":-0.0724772887483959,"53":0.07201813899896391}},"3":{"bias":0.10568636833073536,"weights":{"0":-0.06116570021132901,"1":0.19779862151949237,"2":-0.11037857534322708,"3":-0.2662235914409747,"4":0.5941521575922426,"5":-0.4356001154966063,"6":0.347265459008934,"7":-1.5327339423991277,"8":0.597983751047137,"9":-0.16696800988920243,"10":0.10152478754649526,"11":0.15906727916988941,"12":-0.40170929316071596,"13":0.4379237381671395,"14":-0.6296313203178864,"15":0.3919318184081633,"16":-0.9684548395311852,"17":0.8563271362656543,"18":-0.1602601858003925,"19":0.054230933769197284,"20":-0.0398777724787341,"21":-0.22852582065722848,"22":0.10560013123804875,"23":-0.5245322320783993,"24":0.29604198501394946,"25":-0.5212853866637474,"26":1.4447086322079108,"27":0.11012653690454406,"28":0.020434360981880482,"29":-0.0815202614122828,"30":0.017329321249357568,"31":-0.007540223899237202,"32":-0.18080298741622172,"33":0.24781661707664993,"34":-0.34165531674247,"35":1.4735384404982252,"36":0.1736272520551524,"37":-0.14944022542483465,"38":-0.17184094842680267,"39":-0.121016571715784,"40":-0.15545203422126277,"41":0.0060653227519074085,"42":0.16126559867125856,"43":-0.2515953623223771,"44":1.3748486492366672,"45":-0.08917582047158411,"46":0.05535626311496227,"47":0.021971078750366458,"48":-0.10294538953941441,"49":0.12839997453527174,"50":-0.1907348283547361,"51":0.2310520262813105,"52":-0.5012252329796681,"53":1.5168873321375598}},"4":{"bias":-0.09753980860114098,"weights":{"0":-0.041255571786314255,"1":-0.03962193774059414,"2":0.07143985452130436,"3":0.07977276332676408,"4":-0.023555492423474794,"5":-0.06059219567105176,"6":-0.10642702169716359,"7":0.13579635936766865,"8":0.12380594937130812,"9":0.012722409702837473,"10":0.1784340301528573,"11":0.15816169772297145,"12":-0.0640744049102068,"13":-0.17665735855698586,"14":0.048040400631725794,"15":0.02764065396040677,"16":0.04704699683934449,"17":0.13801723448559644,"18":0.11241313684731724,"19":-0.18443097351118923,"20":0.17590223643928765,"21":-0.042164467461407173,"22":0.10780272958800197,"23":-0.0769988433457911,"24":-0.010256641358137142,"25":0.06278505092486741,"26":-0.18212476866319777,"27":0.03177345981821417,"28":-0.13950059935450554,"29":0.1551021601073444,"30":-0.1405484413728118,"31":-0.026310989726334805,"32":0.06180216418579221,"33":-0.07742577232420444,"34":-0.025351992342621088,"35":0.1847065887413919,"36":-0.19525511553511024,"37":0.11961635537445547,"38":-0.10518522644415498,"39":-0.08499414566904306,"40":-0.08972243936732412,"41":-0.00794737571850418,"42":0.17987649133428935,"43":0.1291256836615503,"44":-0.07026946032419801,"45":-0.09393832590430976,"46":-0.1774643740616739,"47":-0.1148802231065929,"48":0.09057565359398723,"49":0.1039044687524438,"50":-0.06982966912910343,"51":0.012785882782191033,"52":0.12340776734054087,"53":-0.09887662762776017}},"5":{"bias":0.15535792892420114,"weights":{"0":-0.1840211550815641,"1":-0.04550444363679472,"2":-0.005196496570747212,"3":0.5675781139091824,"4":0.24416604029874953,"5":0.3059911807015756,"6":-0.3623942030672191,"7":0.09511045898295474,"8":-0.5456865808331706,"9":0.03145891220830329,"10":-0.04193028448007071,"11":-0.1274006389996639,"12":0.22830398339255928,"13":0.1378092908270611,"14":-0.055515452243127116,"15":-0.2032550211664081,"16":-0.7232395807593622,"17":-0.4036793368120174,"18":0.10691220229147608,"19":0.10300120232865739,"20":-0.06028435399028126,"21":0.049589964031789065,"22":0.07595475851097594,"23":-0.18075611404366773,"24":-0.0359758047379639,"25":-0.7275923030741881,"26":-0.5677285422846099,"27":-0.03531159678180565,"28":0.03781315920411765,"29":-0.0436881244512536,"30":-0.18106918834572377,"31":-0.12743281907877158,"32":0.13106232353181793,"33":-0.21634175042220824,"34":-0.7099089026883814,"35":-0.5458914834908689,"36":-0.1233810371525316,"37":0.05530717271210367,"38":0.09557091711341914,"39":-0.05714911714860978,"40":0.1150332586544002,"41":-0.08813929538261499,"42":-0.13859678559459004,"43":-0.763671188965886,"44":-0.4879774404387017,"45":0.16173368264414545,"46":-0.14901189881935495,"47":0.12369835273030848,"48":-0.023057310953605706,"49":-0.17695781798698765,"50":0.09761381430697953,"51":-0.014033562726470798,"52":-0.5007401635470039,"53":-0.36823193684056804}},"6":{"bias":0.13634008353896243,"weights":{"0":-0.16234137361009382,"1":-0.1617084218224861,"2":-0.15717249617151907,"3":0.03085823233334686,"4":0.04922580547027433,"5":-0.07788745477612993,"6":-0.12280205594746625,"7":-0.26881483364207154,"8":-0.2763036195066697,"9":0.1996752895777972,"10":0.06936320900839903,"11":0.080628133916413,"12":-0.05774876736496356,"13":0.10253499338082801,"14":0.10128024487385981,"15":-0.1403021789991491,"16":-0.015738149266906275,"17":-0.10097014976143945,"18":0.05353178637581261,"19":-0.009792515821549445,"20":0.1936730335535657,"21":0.15100291037446728,"22":-0.15298425499512142,"23":0.2233225474118835,"24":-0.008915082364455096,"25":-0.2595506202794586,"26":-0.15215015678499805,"27":0.14836875345876518,"28":0.13782239471471083,"29":0.02802818156576054,"30":-0.2183556374405559,"31":0.0029851459703535434,"32":-0.028235151827339156,"33":0.029933121038230204,"34":-0.16575268130778067,"35":-0.12527598187060265,"36":0.08990844693576022,"37":0.1828934901192645,"38":0.01809832147776085,"39":-0.03844330926407452,"40":0.07918460558840393,"41":0.044150561710989814,"42":-0.2121810015506103,"43":-0.06032481721054112,"44":-0.0780456500405643,"45":0.005490146406961523,"46":-0.0073308877767627794,"47":0.10091659568552264,"48":-0.011235102509418036,"49":-0.023740921102690434,"50":0.1884625929097311,"51":-0.2641955794239036,"52":0.042578266883583515,"53":-0.18969148982997536}},"7":{"bias":0.1790961573900844,"weights":{"0":-0.16506241960495618,"1":0.15383594145245214,"2":0.031028421705575997,"3":-0.1689698340217043,"4":0.09953776854635626,"5":-0.06617924768544543,"6":0.11974039893910625,"7":0.0473984751090193,"8":-0.09688463721698766,"9":0.02612491299927115,"10":0.02477102883207898,"11":0.1979494323789554,"12":0.0427537736858328,"13":-0.20122823763219153,"14":0.04389039013030785,"15":-0.1337033925927221,"16":-0.07752693153675068,"17":-0.018339808213047887,"18":-0.004718431812503464,"19":0.16264514815659778,"20":0.16473931321761026,"21":0.01937510951736867,"22":-0.13807339681869504,"23":-0.079716266014812,"24":-0.04159002813703322,"25":-0.08451222942099404,"26":0.14940224103837998,"27":0.1868146482976032,"28":0.029489056517097517,"29":-0.06608134602366142,"30":-0.04470793039171313,"31":0.06756861584790265,"32":0.17235693307582056,"33":0.17890156640437188,"34":0.20770160017894224,"35":0.024800240636302668,"36":0.13080762343262953,"37":-0.1059913308831383,"38":0.16251160031098974,"39":-0.00586398612280914,"40":0.0264203861235023,"41":0.011086328926184146,"42":-0.04316587612196818,"43":0.10098147109442894,"44":-0.08661353679370135,"45":0.11566754807410967,"46":0.13556676297136075,"47":0.10419469574702496,"48":0.12755399473189802,"49":0.09110928499284796,"50":0.1958856238967264,"51":-0.01401051185482434,"52":-0.10691063103093416,"53":0.1373372543427268}},"8":{"bias":0.1904661725275559,"weights":{"0":-0.08131256140768804,"1":0.1756722236051008,"2":0.06480832006782933,"3":0.041783857536229325,"4":0.15897700795895997,"5":-0.12451914695355963,"6":-0.1255941283079633,"7":-0.0847878375763025,"8":0.12448125835024304,"9":-0.1622836106456745,"10":-0.10307292407380195,"11":-0.03977458644658233,"12":0.03808227926586371,"13":0.1150262135067442,"14":0.005991331303107867,"15":0.042548635059082865,"16":0.04623420370293385,"17":-0.05857016668781027,"18":0.047545705735680927,"19":-0.10791107695560531,"20":0.11520255785436291,"21":-0.009994718995443831,"22":-0.06478950688552679,"23":-0.12826560030230896,"24":-0.034422645914233725,"25":-0.04600778973834356,"26":0.07403398993736603,"27":-0.14984919419513323,"28":0.1194712833501068,"29":-0.14617776703089266,"30":0.19411622919169244,"31":0.0101912136224339,"32":0.06235630716883856,"33":0.026172902873722047,"34":0.14935238464939096,"35":-0.10423950814280596,"36":-0.1665513596497541,"37":-0.07021960886203243,"38":-0.02837908063083082,"39":0.13347186790948573,"40":0.0249093691798973,"41":0.1335178516023865,"42":0.020490833442874598,"43":-0.009041465147870775,"44":0.16317857056365195,"45":0.016707872040579986,"46":0.10667559904973817,"47":0.10645215315744594,"48":-0.05080547742285143,"49":-0.06043750056789989,"50":-0.01426649781628412,"51":-0.15655331172670195,"52":0.18447162156951344,"53":0.09733035954627865}},"9":{"bias":-0.1380073979041923,"weights":{"0":-0.06095523723565779,"1":0.09126445941568305,"2":0.061177540154914306,"3":-0.10913639849585288,"4":0.017924258663994854,"5":0.048200298606440116,"6":-0.15291039814872212,"7":0.012918317972067824,"8":-0.04130119449267417,"9":-0.10043115042466104,"10":0.007413153123030696,"11":0.08040503207428817,"12":-0.1538710741203935,"13":0.19538911041709092,"14":0.05229249339276854,"15":0.12806079739977408,"16":0.08801973091582747,"17":0.18497969104948767,"18":-0.14965448100150516,"19":-0.020047636018050728,"20":0.08855203808112838,"21":-0.10711037062409608,"22":0.002432448478357422,"23":0.04736369456192399,"24":-0.04160081863628397,"25":-0.15095443835764336,"26":0.10520504032301753,"27":0.008970623295800752,"28":-0.1289435078090855,"29":0.11790310376356931,"30":-0.19863287867379656,"31":-0.04025970142824053,"32":-0.11093278912582459,"33":-0.05579300147042271,"34":-0.012803914565007814,"35":0.016654586176526553,"36":0.1980749410880274,"37":-0.13868597673837227,"38":0.002178873027576593,"39":-0.10626881049316088,"40":0.07612107274736954,"41":-0.06107026399415438,"42":-0.18277392764240052,"43":0.1472349612893575,"44":0.1973461977254546,"45":-0.05310374070470708,"46":-0.0817402282531226,"47":0.05851701788886124,"48":-0.1611989274346419,"49":-0.046157365367140595,"50":0.06866442201037748,"51":0.09446989201909943,"52":-0.010245426282236231,"53":-0.09421654249665821}},"10":{"bias":-0.0480016288860254,"weights":{"0":0.020500262339691114,"1":0.03058341327201583,"2":-0.005054574283113175,"3":0.034919874444154626,"4":0.04746610279734483,"5":-0.08272435507586047,"6":-0.02326675287078918,"7":-0.2091653773703942,"8":-0.01954630502513921,"9":0.16702486182385234,"10":0.0023235673307069158,"11":-0.11538404549837501,"12":-0.12023568341867373,"13":0.18931458644315627,"14":0.05990871807262129,"15":-0.06092106211122134,"16":-0.19568057694898067,"17":-0.0800364134546472,"18":-0.10859252575749843,"19":0.14867918818499976,"20":0.07465743711613772,"21":0.10262447362471362,"22":0.06264040419555952,"23":-0.09194432275931627,"24":-0.010929679315271541,"25":0.0778532810373483,"26":0.10845563491766019,"27":-0.11987181869208938,"28":-0.1662156435429733,"29":0.02312047560513118,"30":0.06994112234329432,"31":0.0055735913090622985,"32":0.002693736104274634,"33":0.07988820312791432,"34":-0.06141844397618698,"35":0.10091152613087138,"36":0.1735664135078263,"37":0.06153138288585112,"38":0.03945540504016909,"39":0.015379337422376446,"40":-0.1886895633845471,"41":0.07358358884756618,"42":-0.10013268507899215,"43":-0.13688209142735813,"44":0.025333673131563688,"45":0.023273931991049875,"46":-0.011469494757510674,"47":-0.02849899186797835,"48":0.12631522414596374,"49":0.1505651991867349,"50":0.13899734912183792,"51":0.04363689588383407,"52":0.18733530526059622,"53":-0.13174964214224583}},"11":{"bias":0.18944043206465339,"weights":{"0":-0.1542544324827777,"1":-0.027935493448641126,"2":-0.14830780620617573,"3":-0.06424294969772675,"4":-0.019772309189141753,"5":-0.13426943945333059,"6":0.18491039638489976,"7":0.17233808108150953,"8":-0.06633687707307742,"9":0.016515791103229698,"10":0.1851960364759535,"11":0.1897213361645885,"12":0.089834537874073,"13":-0.19845339545790133,"14":0.005542691173612594,"15":0.10206500409789601,"16":0.17956671932562224,"17":-0.11248284622920163,"18":-0.04962793478253768,"19":-0.0011622051443937519,"20":-0.15056389116898317,"21":0.19380273863707573,"22":0.15366052610691067,"23":0.14294709870155947,"24":-0.14186971823972383,"25":0.17058025826629802,"26":-0.10106693803264126,"27":0.09847082543732275,"28":-0.00097520728464513,"29":0.026981310164327872,"30":0.025716177633245164,"31":-0.002163511300844938,"32":0.17478678073970716,"33":0.06428387575416278,"34":0.0800591945592754,"35":-0.09395295652031208,"36":0.0820687714897142,"37":-0.17215690234391404,"38":-0.0581586849852644,"39":0.06396022014648306,"40":0.16727153307325734,"41":-0.12180556269232572,"42":-0.17617347282432327,"43":0.09107899057314292,"44":0.02382648849542014,"45":0.14282420443464833,"46":0.1863320620493565,"47":0.12329713580328917,"48":-0.12342884678071098,"49":-0.0505892084173471,"50":-0.11913541129386085,"51":-0.18697155192230702,"52":-0.0596813385247437,"53":0.1507895898924756}},"12":{"bias":0.14102908647551451,"weights":{"0":-0.19516284666408432,"1":-0.1930695700023228,"2":-0.09224081993105787,"3":0.07972929500546225,"4":-0.005710087412929294,"5":-0.05290532633834614,"6":-0.14511165280526084,"7":0.4796772034599638,"8":-0.06410113796256046,"9":-0.16611454620732816,"10":-0.13291704857490982,"11":-0.10387696003918438,"12":-0.055878538881281734,"13":-0.3166421900784086,"14":0.2468515932989861,"15":0.08124718190713646,"16":0.3823076426545344,"17":-0.36576332295067465,"18":-0.1714449954247045,"19":-0.15114356862140385,"20":-0.12696696659581125,"21":0.18450515200601286,"22":-0.054845910004203496,"23":0.11669038473506078,"24":-0.19923309409351264,"25":0.3192155317451007,"26":-0.15430028063951717,"27":0.18433321425137558,"28":0.1581212963666205,"29":-0.13826959896547006,"30":-0.03248713149224291,"31":-0.10924488025292865,"32":0.16673193849577803,"33":-0.09163391183858995,"34":0.11602803602603219,"35":-0.16339430618481704,"36":0.018321321878582528,"37":0.1592754927407625,"38":0.16972401815249286,"39":-0.16829691436010968,"40":-0.000018375265767034447,"41":0.03592201314356898,"42":0.0032708728312209495,"43":0.16544043234479305,"44":-0.15524189089439602,"45":0.024518279797847934,"46":0.08521174034497755,"47":-0.15295957057836856,"48":-0.14103145763106684,"49":-0.10658762824457016,"50":-0.08059501242117847,"51":0.12000658854431123,"52":-0.09602965819546325,"53":-0.04397181743178825}},"13":{"bias":0.16731604400902692,"weights":{"0":0.18456761257767368,"1":0.1130714369799553,"2":-0.029012455850031805,"3":-0.13835135955115568,"4":0.13207877023408884,"5":-0.21030100854343686,"6":-0.06163597445509681,"7":-0.2175833915883172,"8":-0.1090446500797769,"9":-0.1940494682539515,"10":0.16909300554231732,"11":0.13370237938488297,"12":0.17328586149906317,"13":-0.10990365253343941,"14":0.12609832544709662,"15":-0.07784829771575269,"16":-0.265220006891851,"17":-0.06795855805163384,"18":0.18685946095964567,"19":-0.08636258272449983,"20":-0.03891864991684157,"21":0.06048033866972422,"22":0.15459421557953054,"23":0.23404430279789817,"24":-0.04788100873949676,"25":-0.1606358766904619,"26":-0.08940832439363976,"27":0.1952540176672601,"28":0.14709728495856658,"29":-0.09855876564012445,"30":-0.06894657022535186,"31":-0.13589596911806356,"32":0.05381329900614427,"33":0.005956322491472636,"34":-0.06367866106654585,"35":0.05064789380219301,"36":0.09106144852800621,"37":-0.1551660529218067,"38":0.1591917492828243,"39":0.04932664260681399,"40":-0.0770839032072233,"41":-0.20638766420791754,"42":0.11226125538206355,"43":-0.36988958222287394,"44":-0.1420990591782822,"45":0.18871788881404156,"46":-0.052074003188535424,"47":-0.023937036227651365,"48":-0.058211805432621555,"49":-0.11043317467108449,"50":-0.10894221048728639,"51":-0.11537913138562515,"52":-0.1463820330196444,"53":0.1338667593777292}},"14":{"bias":0.07931190974795793,"weights":{"0":-0.17769743905208205,"1":-0.0644049319391705,"2":0.15774336070837175,"3":0.13467259792732278,"4":-0.18637332613587707,"5":0.23330427836156656,"6":-0.13315596820732697,"7":0.28790976136273827,"8":-0.10985148285661395,"9":-0.09463771218369996,"10":-0.027206865886213964,"11":0.1519044583945929,"12":0.17297781723186031,"13":0.09568828409551097,"14":0.035125220084816125,"15":-0.19950953482853398,"16":0.09840634421584371,"17":-0.34432483948121595,"18":0.08797411306679205,"19":-0.04715845340511339,"20":0.1920879161468782,"21":-0.03342971035936573,"22":0.08846437297404167,"23":0.18163346552977477,"24":-0.1456863087739749,"25":0.2483427830499712,"26":-0.3092431553481167,"27":-0.14528296837272522,"28":-0.10702545230450047,"29":0.010791213709220704,"30":-0.12464508332437316,"31":-0.1684899298900391,"32":-0.10801706451856234,"33":0.10077274863156083,"34":0.19840553531620794,"35":-0.2580216369401773,"36":-0.014430177700156418,"37":-0.003137161423806626,"38":-0.015132054298127626,"39":-0.004276313386232233,"40":-0.04571659820703696,"41":-0.18789910639418186,"42":-0.005463634368244266,"43":0.11986554823164028,"44":-0.15234062044571892,"45":0.03856883033871468,"46":-0.006704589036096476,"47":-0.18454432875806578,"48":-0.029582785192966338,"49":-0.08481304884103749,"50":-0.008265515414839995,"51":0.10296911272465754,"52":-0.0119600772667808,"53":-0.15332292707578185}},"15":{"bias":-0.07191492129625467,"weights":{"0":-0.01671410069188738,"1":0.14955679419407986,"2":0.008397982278886745,"3":0.7486196947554805,"4":0.23280330028560905,"5":0.29063479693558825,"6":-0.19673653869332516,"7":-0.019172701523377952,"8":-0.6952555617338646,"9":0.04315011721152992,"10":-0.01436994759562334,"11":0.19274276484190606,"12":-0.24434624553070253,"13":-0.17528918930489412,"14":0.1283096860299168,"15":-0.39189096505137133,"16":-0.48985361698099406,"17":-0.4420304695161834,"18":-0.06884111986310748,"19":0.03390810894515618,"20":-0.09538197449087123,"21":-0.17934313498968005,"22":-0.16270226642512345,"23":-0.1447300724445621,"24":-0.29859239134740717,"25":-0.4992930620321019,"26":-0.3757034865275501,"27":-0.11759156420645056,"28":-0.14859493952453948,"29":0.18674060555659067,"30":-0.18190300429715636,"31":-0.03737550389895662,"32":0.19253290043148602,"33":-0.011757418832397264,"34":-0.2631501098314996,"35":-0.3240619824192248,"36":0.18362202196248453,"37":0.13720679196670083,"38":0.12802855116295644,"39":-0.03177619687311255,"40":-0.06705797486031265,"41":0.1882303097611195,"42":-0.052215233474334155,"43":-0.3608365069205814,"44":-0.3714154608799215,"45":-0.02822082379185956,"46":-0.1310259742894443,"47":-0.1736455800735837,"48":-0.03734254361984839,"49":0.12293078938381799,"50":0.17284512385601886,"51":-0.06289187311905399,"52":-0.2103597166731787,"53":-0.4030053660003235}},"16":{"bias":-0.034220747183708135,"weights":{"0":-0.0025440326468152397,"1":0.15946986837629964,"2":0.19798864418215403,"3":0.214625755051151,"4":-0.23139202278010051,"5":0.021888356384144072,"6":0.08842135531338938,"7":0.2478902177406129,"8":0.032794733130881895,"9":0.04320679932011536,"10":-0.1670452913707952,"11":0.03318090629948404,"12":0.06401050510227513,"13":0.15940724725718938,"14":0.222633046789519,"15":-0.002774944640708956,"16":0.10106040012054218,"17":-0.3182322831665037,"18":-0.10547337639957356,"19":-0.1670560773134894,"20":-0.12713219388192654,"21":-0.0384702935337667,"22":0.09371399769413559,"23":0.14281624925743824,"24":-0.1406488127976646,"25":-0.05831061293105341,"26":-0.25077368029730557,"27":-0.04265910085614913,"28":0.09720688082541268,"29":0.045559321577336165,"30":-0.01651333631214424,"31":-0.022919553794822082,"32":0.17317211032184981,"33":0.1578588251255,"34":0.20587679734902897,"35":-0.03440177289032935,"36":0.12081893413998934,"37":0.011951229743061642,"38":-0.00445297508948667,"39":0.03872770483406165,"40":-0.19634002347803828,"41":-0.1544580757310847,"42":0.15191095489294829,"43":-0.11690944435127235,"44":-0.16518142919284398,"45":0.026437941052363412,"46":-0.04991698026836359,"47":0.1452075303411147,"48":-0.05027723747646741,"49":-0.19715843622593984,"50":0.06886093140395311,"51":-0.12322449560609743,"52":0.16716517929611743,"53":-0.18925482139058486}},"17":{"bias":-0.18509962238111602,"weights":{"0":-0.03963400110294078,"1":0.06464248374936818,"2":0.086790820630742,"3":-0.027081212439818255,"4":-0.16023901579302915,"5":-0.010819112921195162,"6":0.05768612470342509,"7":0.09539347740520246,"8":-0.1396629740429699,"9":-0.07600573223640661,"10":0.1558073005980355,"11":-0.13446480938302122,"12":-0.19846289692742275,"13":-0.15993250580321253,"14":-0.09175936112234075,"15":-0.04216663100986714,"16":-0.1341220888242584,"17":-0.1849352748214405,"18":-0.08918264489843099,"19":-0.01638503739658502,"20":-0.17685707787821273,"21":0.1481620703223227,"22":0.09088544197887885,"23":0.08829422756820544,"24":-0.04407302378430701,"25":-0.05323420260238487,"26":-0.06328513597652777,"27":-0.015580971541650303,"28":0.012863562101493326,"29":0.0817095066403016,"30":0.05919373298915901,"31":-0.1637279668137987,"32":0.06928629163010293,"33":0.01464834144784786,"34":0.06715695412656729,"35":0.10787478729973438,"36":0.1572503517886703,"37":-0.1901271018065161,"38":-0.18499557492065166,"39":0.1750803842842168,"40":-0.03821032888840024,"41":0.12779119379793621,"42":0.02087604422425617,"43":-0.044872489382769803,"44":-0.08724969364602495,"45":0.0005842793249688112,"46":0.026755082704493262,"47":0.09474119063159869,"48":-0.02617659153972666,"49":-0.16318396712525618,"50":-0.167806753991918,"51":-0.09446599915340426,"52":0.05474535869930621,"53":0.026370693078483377}},"18":{"bias":0.12729466302049325,"weights":{"0":0.06040662987114293,"1":0.04306694022912442,"2":0.09906357454169175,"3":0.1413810066481815,"4":-0.10339360248291903,"5":0.14523791579659964,"6":0.06398643810953865,"7":-0.09059824588559298,"8":0.10355146233792213,"9":-0.011497927655272232,"10":0.013502135759907028,"11":0.08086968188305511,"12":-0.15942471290136795,"13":0.16845965301676807,"14":0.004038125164701166,"15":0.02827460828243958,"16":-0.009135655182522502,"17":0.13157419111342067,"18":0.19082788759935893,"19":-0.09072615012745631,"20":0.19636109080652558,"21":-0.07641128156793384,"22":-0.10680050419818968,"23":-0.05795373423226126,"24":-0.14953526888795957,"25":0.07624248753353666,"26":0.0833864986958314,"27":0.06861453736687197,"28":0.1616428959843061,"29":0.07127533338521858,"30":-0.10311161631154984,"31":-0.1709435716938553,"32":0.007777263130538037,"33":0.03847777274336973,"34":0.09619348173804447,"35":0.07476644467860051,"36":-0.11896120796855686,"37":0.11636524563735516,"38":-0.004214086003383321,"39":0.10198619214218195,"40":-0.15770041026539136,"41":0.011978180268326049,"42":-0.199852361903354,"43":0.12342490607130835,"44":0.13604725452169683,"45":-0.159016375402935,"46":-0.06713684347179831,"47":-0.0866683338829017,"48":0.05896738285549245,"49":0.16685949275273496,"50":-0.16541095068442127,"51":0.03414673485976909,"52":0.1754066088140463,"53":0.1029143077586728}},"19":{"bias":-0.03952330394281944,"weights":{"0":0.0329703720587781,"1":0.14532873829935236,"2":0.15944029651591882,"3":-0.0041075719085411685,"4":0.1395842588795185,"5":0.18434342684685645,"6":-0.16741479213886107,"7":-0.20629186589852158,"8":-0.017194556871611325,"9":-0.0509335478117889,"10":0.15731286035740036,"11":0.118434728827221,"12":-0.015352926198786965,"13":-0.007087747555541982,"14":0.07984383829424427,"15":-0.18898340446916637,"16":0.0610891321864774,"17":-0.11448892987266558,"18":0.15952581751901537,"19":-0.18768440379854034,"20":0.09391321889354372,"21":0.17113911966281994,"22":-0.12494451505537198,"23":0.03587087659216521,"24":0.08798486820539582,"25":0.0645458141889339,"26":0.07811438002797792,"27":-0.14100450590253072,"28":0.10800289208619332,"29":-0.12597355965761664,"30":0.0038884284732885943,"31":0.10688341994432374,"32":-0.10370198171236723,"33":-0.0020503588445324257,"34":-0.1506548246406216,"35":-0.1539130992143852,"36":-0.17646905165371232,"37":0.13998200029019595,"38":-0.18542995693037276,"39":0.14320967647346688,"40":0.1992581557635058,"41":0.06733809669473578,"42":0.13157801597669028,"43":0.07469011175202073,"44":0.007875355258963181,"45":-0.05523477475052084,"46":0.13109122263530854,"47":0.07478766229025789,"48":-0.04813210110725699,"49":0.029952648836374798,"50":0.17237323924254627,"51":-0.11890380107919635,"52":0.024295804748954715,"53":0.05023007232064975}},"20":{"bias":-0.050968898413116644,"weights":{"0":0.14332424664647253,"1":0.10998280008657485,"2":0.04172455446557685,"3":-0.18599226984452955,"4":0.019754020518078595,"5":0.09431481745471604,"6":0.0023110067930831356,"7":0.060894882415096524,"8":-0.10866310590556046,"9":0.11606287536775678,"10":-0.07735897509601115,"11":-0.011244546812688681,"12":0.17027424105018216,"13":0.015628512831296345,"14":0.037557922942536626,"15":0.15431673497186368,"16":-0.06875531152675726,"17":-0.039284069614611665,"18":-0.19249119112420884,"19":-0.13449393521423958,"20":0.06795553702271125,"21":0.16486471280692022,"22":-0.15131919489814447,"23":-0.18640624624127974,"24":-0.057568977813888325,"25":-0.11366669318399701,"26":0.0768916493414109,"27":0.0517428747617238,"28":-0.05228627834342316,"29":-0.17253550815213628,"30":-0.08938971310887973,"31":0.09117322850056114,"32":0.00044899101657259663,"33":0.14618940398963046,"34":0.1145136578282415,"35":-0.1851763325591925,"36":-0.012459275629819286,"37":-0.004550173102314165,"38":0.026319888491726704,"39":0.11891758378316447,"40":0.004662979220817372,"41":0.06490713531073108,"42":0.05625728696376303,"43":-0.16976405354521173,"44":0.021788003369444073,"45":-0.1287878345270709,"46":0.13948188405107645,"47":0.08624983548458169,"48":0.07723409550015913,"49":-0.10998152347473729,"50":-0.03668711063165995,"51":-0.15463874781814882,"52":-0.08810359046446943,"53":-0.048964268171943874}},"21":{"bias":-0.13482704450651903,"weights":{"0":0.006664264631757379,"1":-0.0991368765204125,"2":-0.03363048331528452,"3":-0.12990640865785094,"4":0.054532171703780934,"5":0.010540141954998326,"6":-0.3252981895419167,"7":0.32977864723702166,"8":-0.21619335691969332,"9":-0.02284610090329408,"10":0.0254029843177836,"11":-0.14630805785953088,"12":-0.04546584379399131,"13":0.17292367467623163,"14":0.08837351836313814,"15":-0.16383556724535603,"16":0.5177602658424703,"17":-0.059767604459487665,"18":0.04536704324799231,"19":-0.03677120112726148,"20":0.11989968587983144,"21":-0.2060519339337553,"22":-0.15815399106614308,"23":0.08282900710488925,"24":0.17964896107763512,"25":0.14285893964062688,"26":-0.10497620811354384,"27":0.04997229410253421,"28":0.054768258923474825,"29":0.07798667259164717,"30":-0.03284263440442232,"31":0.13209092403727205,"32":-0.2740307554113328,"33":-0.12613130327998293,"34":0.13854761244269814,"35":0.058952580219276615,"36":-0.08422689152762773,"37":-0.006971070585287623,"38":0.18203477897733053,"39":-0.10892571567605869,"40":-0.16317746381034892,"41":-0.217195792095051,"42":-0.26175632545415534,"43":0.33379714986800724,"44":0.07238947882769049,"45":-0.13231605659054274,"46":-0.16612730433195586,"47":-0.13323572491388422,"48":0.02113571225771654,"49":0.192310722566911,"50":0.2207255998247159,"51":-0.38472678803506005,"52":0.08328938085759839,"53":0.051410413195635794}},"22":{"bias":-0.13466872147017622,"weights":{"0":-0.04222318950316717,"1":-0.1860940946437353,"2":-0.14545106174077932,"3":0.3125053140466969,"4":-0.5654156498863132,"5":0.6244631021133351,"6":-0.32591198403514426,"7":1.2819347320311067,"8":-0.5667509871980582,"9":-0.13975382589200017,"10":-0.01559921879558516,"11":-0.0910319483273782,"12":0.3791832538845293,"13":-0.5459044418547032,"14":0.660305287886426,"15":-0.5338124343817071,"16":1.1163569227003396,"17":-0.7344552975157191,"18":-0.040393895915454864,"19":0.008780214695627966,"20":0.09564304562914268,"21":0.26038860603154906,"22":0.0024374065233646698,"23":0.5584962689184011,"24":-0.3960971545950352,"25":0.6839255643123678,"26":-0.9854474832957248,"27":0.0021475244455129512,"28":0.04949029199214311,"29":-0.05606832330413036,"30":-0.034786614989406876,"31":0.061811856273138344,"32":0.20741123501357225,"33":-0.1884876936008669,"34":0.5661634828323467,"35":-1.021768230901646,"36":-0.15324957276209292,"37":0.017589038345179667,"38":-0.05614254503977265,"39":-0.12513627267709468,"40":-0.12985331939101333,"41":0.05988236625282156,"42":-0.2850652854655239,"43":0.39459147656602966,"44":-1.3308423502869777,"45":0.04441290600794755,"46":0.03278515852536929,"47":-0.1434366732100689,"48":0.07625142604191724,"49":0.11789863771430009,"50":-0.01508906044540311,"51":-0.034531611881717245,"52":0.20242109355191754,"53":-1.0404740397308943}},"23":{"bias":-0.1694883132564341,"weights":{"0":-0.0809655690680472,"1":-0.0048981875055427795,"2":0.19390186156847675,"3":-0.12979704861083544,"4":0.04783654729730581,"5":-0.17398235860220582,"6":0.14957956108431272,"7":-0.36673862575145916,"8":0.26287059108650107,"9":0.04266378982770606,"10":-0.18343613169711928,"11":-0.18074019395247612,"12":-0.10558541005226375,"13":0.1834684229961306,"14":-0.17120672464764713,"15":-0.10123423808085098,"16":-0.40800082346902333,"17":0.13643633195375193,"18":0.11516630927921075,"19":0.0645941537335278,"20":0.003043949013996521,"21":0.06736225157930967,"22":-0.12233868235566081,"23":-0.031687852895334344,"24":0.03660654975226523,"25":-0.19916400996607111,"26":0.21804187283879128,"27":0.1489055233370032,"28":-0.11639538710066807,"29":-0.08190376347539453,"30":-0.09247967384881504,"31":-0.1429214943855328,"32":-0.16799448105427325,"33":0.009632539650114413,"34":-0.2653101131926815,"35":0.2160231878864033,"36":-0.10432872787141322,"37":-0.01636890993310137,"38":0.049999347203060956,"39":-0.04814226105954457,"40":0.043589103102379304,"41":0.0849527243120222,"42":0.22826340009916515,"43":-0.14694273458971485,"44":0.4333433683897179,"45":-0.15186250659050146,"46":-0.18563554651082806,"47":-0.028364860078838934,"48":0.151386528554735,"49":0.15317759422759453,"50":-0.08038206301438432,"51":0.04486905600544495,"52":-0.19840439935080217,"53":0.21733432473756875}},"24":{"bias":0.16152964129605862,"weights":{"0":-0.13480623039051418,"1":-0.03262524476518382,"2":-0.0987990387015565,"3":0.04477927121549077,"4":-0.18632885313875208,"5":0.012327741688271264,"6":-0.04382666352992081,"7":0.2359406594061199,"8":0.07325135853168495,"9":-0.13486406621626545,"10":0.16259849787669323,"11":0.09636046452316088,"12":0.167345346314263,"13":0.13393697043585465,"14":-0.06857122126600265,"15":0.15311625414508087,"16":0.020469531507174406,"17":0.08880726323780236,"18":0.10348237598557708,"19":0.165495915293508,"20":0.04544461107511891,"21":-0.08860031074815229,"22":0.05936424760463816,"23":0.06721822654515462,"24":0.08161541276043204,"25":-0.04828143710354301,"26":-0.01755800150114704,"27":0.0608024923961025,"28":-0.18113871744693782,"29":-0.009155184589658928,"30":-0.17057359693185586,"31":0.13916463161724082,"32":0.06752883955107379,"33":-0.10442787535079469,"34":0.09362182138895618,"35":-0.07902901115511973,"36":-0.10769898274020362,"37":0.0988313844071562,"38":0.0810768089878381,"39":0.04006160539823463,"40":-0.034011791030096314,"41":-0.02557945134946527,"42":-0.2080504020047402,"43":0.24206234095828189,"44":0.007044919402624279,"45":0.04968655291224382,"46":-0.13806249324813674,"47":0.05652704057881685,"48":-0.04394091437213428,"49":0.11544524835042967,"50":0.06039558769794713,"51":-0.20396197341320105,"52":0.1714165995717551,"53":0.12854436851949955}},"25":{"bias":0.15083763752057466,"weights":{"0":-0.0451173950618855,"1":-0.1131076508797412,"2":-0.19921009426475322,"3":-0.16011476884826215,"4":0.1961104819368516,"5":0.13981495699447194,"6":-0.04521365355328654,"7":-0.03984301925342272,"8":0.14651663491336864,"9":0.07467104991478042,"10":-0.06975864772792947,"11":-0.11760650946336836,"12":-0.1700834792224108,"13":0.13998987003277577,"14":-0.11971140080214555,"15":-0.011486535125097569,"16":0.19154335180886134,"17":-0.17948068878833082,"18":-0.17917450415916117,"19":0.06551603763741079,"20":0.1081467852054242,"21":-0.024445065651396366,"22":-0.08633548220946952,"23":0.01672836841879675,"24":-0.16758414840123995,"25":-0.17484395368913397,"26":0.00834444455268753,"27":-0.17551212622012846,"28":0.04055832814503144,"29":-0.07454415315083929,"30":-0.049947078358688696,"31":0.10703393217691963,"32":0.1201359711152519,"33":0.09304452531671323,"34":0.1607179958927268,"35":0.029055933863583527,"36":-0.006454728563869556,"37":-0.08057046593662621,"38":0.10826639765981629,"39":0.19337012923869476,"40":0.13029862147433258,"41":-0.13168346104241402,"42":0.18773183265683327,"43":-0.0007980843458454972,"44":0.03959821721451619,"45":0.08602567127971283,"46":-0.14262392007642646,"47":-0.05891531671037683,"48":0.037741144180668144,"49":0.16216282595386494,"50":-0.018772613200443388,"51":-0.15107596045371402,"52":0.2008699773940517,"53":-0.11988448997973704}},"26":{"bias":0.012202173337441093,"weights":{"0":0.14076591361475982,"1":0.18887836959483983,"2":-0.16625884151208306,"3":-0.17632463122567069,"4":-0.10668025979645022,"5":0.06956372698196595,"6":-0.08900228932235145,"7":-0.021643271305155823,"8":0.07097269973733879,"9":-0.17612437368162528,"10":0.015603591144521527,"11":-0.1265375541222516,"12":-0.11518319070115662,"13":0.17573554424192905,"14":0.025124892390828525,"15":-0.0832586674307624,"16":-0.11806882341409485,"17":0.07974398669613274,"18":-0.15455951511653604,"19":-0.1021093783697179,"20":0.03226002789374799,"21":0.08772437877548614,"22":-0.1481178485384178,"23":0.046472090006226444,"24":-0.2332688937483404,"25":0.07137108864656219,"26":0.018855512026772457,"27":-0.12284669879004095,"28":-0.14271135728480788,"29":0.18416840743780527,"30":-0.142560166147939,"31":0.03662428142067356,"32":0.058698261282379,"33":-0.1722347645774705,"34":-0.02209712297807324,"35":-0.19962425606855605,"36":-0.048297032720438914,"37":-0.06142835485257917,"38":0.12571321179548733,"39":0.02714980883218503,"40":0.2076872120762582,"41":-0.06877340860939156,"42":0.05826580901264172,"43":0.10095957201817066,"44":0.042815402313790246,"45":-0.13180436644083068,"46":0.09451321336089928,"47":0.16884322912175184,"48":-0.05390824612188866,"49":0.18218694574479272,"50":0.10132408527515041,"51":0.19673647042678621,"52":0.013417576758471121,"53":-0.20744466694069438}}},{"mic":{"bias":-1.2563076077061752,"weights":{"0":-0.9612965971449713,"1":1.132847702092439,"2":-1.0929477958875222,"3":-0.17646227554910923,"4":1.7947034160032491,"5":1.0790603041761841,"6":0.1602217093223907,"7":-1.0368736210590674,"8":-2.8068236302588443,"9":-2.0128525130826227,"10":-2.8224391627670085,"11":0.630709649476458,"12":-0.6669423454668715,"13":-2.8604972448178687,"14":-1.040044536520595,"15":1.179759281020107,"16":-0.7374851791952356,"17":-0.32758758081890443,"18":-2.7131109074753557,"19":0.08715576640819905,"20":1.4879713870831048,"21":0.44891646379068395,"22":-0.9427036577729409,"23":-0.4929382601096658,"24":1.7339877638430121,"25":2.1761850270252694,"26":0.2091404786294613}},"stop":{"bias":-0.4527448454241836,"weights":{"0":-1.5445048468115297,"1":0.361323515690236,"2":-0.27165313663899754,"3":-0.3737526705075718,"4":-2.7434296260467113,"5":0.5962327354534219,"6":-0.037417850585406545,"7":-8.561640950734951,"8":-0.91492263173487,"9":-0.6962397161652573,"10":2.2632353485023256,"11":-0.44765329562680484,"12":5.0458111592597925,"13":2.0219076051384754,"14":-0.4544829526744008,"15":0.5192611681989405,"16":2.307501526011846,"17":0.22025028343211908,"18":-0.8493380959525495,"19":-0.1877977984928227,"20":0.5012534432726713,"21":-0.4851982894242908,"22":-0.4663921425964315,"23":4.530356591794899,"24":-2.4382550935311986,"25":-2.5668830852571016,"26":-4.992768088419297}},"walking":{"bias":0.16964711787090042,"weights":{"0":0.05183285260134585,"1":-1.5495357706755089,"2":0.0025353376311336544,"3":0.3837505776569951,"4":0.5882797615341679,"5":-1.95276542228206,"6":-0.7371890975030378,"7":0.5980117662992125,"8":1.8503558163041731,"9":1.567758048768771,"10":-0.3485217416128121,"11":0.4248009021159921,"12":0.17975131914857675,"13":-0.4279271843075467,"14":0.06436970690416516,"15":-1.4802169745273568,"16":0.2875835313388707,"17":-0.7683647277685383,"18":1.8267917992737122,"19":-0.8130603128565368,"20":-1.7920149229292288,"21":0.44946198243713625,"22":0.21428009854859667,"23":-0.27840890014640074,"24":0.41070224293164326,"25":0.05309311695077108,"26":-0.31921303691923375}},"circle":{"bias":-0.4675664023517128,"weights":{"0":1.7401773050925198,"1":0.09041530052056597,"2":-0.5962731089502104,"3":-0.19887094313719708,"4":-0.8467042951963689,"5":0.14330222514932361,"6":-0.453277701615335,"7":8.453832657669968,"8":-0.42028710974935296,"9":-0.4147771079952082,"10":0.29786072821659254,"11":-1.1809865296201405,"12":-5.184238178775254,"13":0.005080031924338712,"14":-1.0071503917292748,"15":-0.09813059752278783,"16":-2.863088345075017,"17":-0.5955132623652425,"18":-0.7225730517981744,"19":-0.48147144809774917,"20":-0.1424640021489549,"21":-0.8320087945561423,"22":-0.9218426069423435,"23":-4.499268435832645,"24":-0.8699311804038826,"25":-1.0961848768413394,"26":4.966877415823144}}}],"outputLookup":true,"inputLookup":false}