{"layers":[{"0":{},"1":{},"2":{},"3":{},"4":{},"5":{},"6":{},"7":{},"8":{},"9":{},"10":{},"11":{},"12":{},"13":{},"14":{},"15":{},"16":{},"17":{},"18":{},"19":{},"20":{},"21":{},"22":{},"23":{},"24":{},"25":{},"26":{},"27":{},"28":{},"29":{},"30":{},"31":{},"32":{},"33":{},"34":{},"35":{}},{"0":{"bias":-0.041392451586999626,"weights":{"0":-0.04912109798700656,"1":-0.1668626525154325,"2":-0.13676826017584826,"3":-0.8887853517131534,"4":0.8915336764513623,"5":-1.1627488932887826,"6":0.026236042257218456,"7":0.12592433550431464,"8":-0.15350804127290418,"9":0.24633631400961514,"10":0.44977525685501096,"11":-0.9281633367879493,"12":0.13657595298924793,"13":0.1660129054193913,"14":-0.1517337932790869,"15":0.04623343212523555,"16":-0.31983522419249527,"17":-0.6582168630987982,"18":0.0450337974297841,"19":0.14198042541620037,"20":-0.13326519791080468,"21":-0.2900439752366932,"22":-0.08472589957305066,"23":-0.014689151574117985,"24":0.18199551154439944,"25":-0.01023759034737969,"26":0.2018598152849837,"27":-0.30461495940401173,"28":0.06409876173517028,"29":0.19125582156219198,"30":-0.17105047908799384,"31":-0.16373294788953627,"32":0.17378079750189693,"33":-0.020131383348779893,"34":0.06663649588278799,"35":0.30650895307072196}},"1":{"bias":0.1719501960312512,"weights":{"0":0.15467330572686297,"1":-0.06248399915571427,"2":0.1940118678200365,"3":-0.1575136253178966,"4":-0.21876834698373623,"5":-0.07058897050731988,"6":0.1816509194960997,"7":0.03592848336965218,"8":0.13585117973877503,"9":0.15774029266476808,"10":0.045360391479034264,"11":-0.2536796764283166,"12":0.09030211790785501,"13":0.11842348382165538,"14":-0.04768415409545914,"15":-0.00995426178253878,"16":-0.06746097656857739,"17":-0.04465467792120625,"18":-0.11662135452545411,"19":0.032807128871029524,"20":0.03605318564074826,"21":-0.15663830876990856,"22":-0.21419999478024931,"23":0.14961587852854819,"24":-0.11784280450830967,"25":-0.1352853942541129,"26":-0.048974929999197093,"27":-0.1055016932939775,"28":0.09761803963870806,"29":0.2533061956684468,"30":0.09157802092162577,"31":0.08628627622142566,"32":0.11639497697102769,"33":0.17822398080814772,"34":-0.01408129825885476,"35":0.08504240490829093}},"2":{"bias":-0.0957357775714781,"weights":{"0":0.019536863071740785,"1":-0.07278722727688083,"2":0.09452456776850283,"3":-0.09609151600597936,"4":0.26152285674433723,"5":-0.22827854702675016,"6":0.01613833410402476,"7":-0.1566798408296363,"8":-0.13766481538245304,"9":-0.019469384612504224,"10":-0.1955939568675262,"11":-0.6620424047928155,"12":0.10937147893367145,"13":-0.08755639550443103,"14":0.012785964901781131,"15":0.06674426964132266,"16":-0.37969725070532023,"17":-0.21911998104844332,"18":-0.12088146776479666,"19":0.0020122253143458092,"20":-0.10870687719002523,"21":-0.2901739227291084,"22":-0.311919652253694,"23":0.12366062679319957,"24":-0.11781988944076985,"25":-0.023172341921441356,"26":-0.042283886619616226,"27":-0.3010923809544174,"28":0.27283428484049616,"29":0.24504036010918143,"30":-0.010066952232469882,"31":0.17046755038301104,"32":0.05728153825287118,"33":0.10084248103806637,"34":0.2015635420626971,"35":0.17789187739122916}},"3":{"bias":0.12297328781833765,"weights":{"0":-0.04535430303140042,"1":0.09418882946318263,"2":-0.01735431703664901,"3":0.167733586097221,"4":-0.1947391244080383,"5":0.33735379953794586,"6":-0.06554938632635976,"7":0.12920175231846753,"8":0.08330719775510789,"9":-0.2993304231153018,"10":-0.09014287427341552,"11":-0.21364110911163017,"12":0.17937084170674295,"13":-0.19345251248259368,"14":0.1879967700209658,"15":0.055431834990201566,"16":0.0010377146146125502,"17":-0.19271757003140935,"18":0.18336497402464924,"19":0.1397681978394462,"20":0.07296571507400904,"21":0.07255823909390234,"22":0.16446817411653247,"23":0.36045182394957137,"24":-0.04512809187956345,"25":0.17148931046919402,"26":-0.10092427885857805,"27":0.28463090494092613,"28":-0.24129368212432445,"29":0.07688876928555868,"30":0.1543715023837143,"31":0.15923924583884408,"32":0.1189246075647615,"33":-0.055938555397328074,"34":0.05790005308986282,"35":-0.27759748347412777}},"4":{"bias":0.1472463167220553,"weights":{"0":-0.09930885092189605,"1":-0.18948772062334954,"2":0.17322832295488572,"3":-0.20268122345423414,"4":-0.17479586384591633,"5":-0.11414262741701685,"6":-0.046077647803139755,"7":-0.08113432726256807,"8":-0.18911309851411193,"9":0.01489353371891161,"10":0.0017957131480763442,"11":-0.23465251370411105,"12":0.15012421192955477,"13":0.043307221748437257,"14":0.0826035026250804,"15":0.07581029525228754,"16":-0.03613821433872149,"17":-0.1836934351039954,"18":0.09351003950707099,"19":-0.1295064420053511,"20":-0.1850611419497475,"21":-0.05635412638161183,"22":-0.00004472154905401852,"23":0.11995708315507192,"24":0.15918143084459752,"25":0.06216696474288465,"26":0.15670625619807224,"27":-0.17986227277754693,"28":-0.09493930343840713,"29":0.22045602374723927,"30":-0.13092672545293593,"31":-0.09049396774485172,"32":-0.06859534015243308,"33":0.1827687717532079,"34":-0.15894744594312663,"35":0.21511372088830566}},"5":{"bias":-0.16357471906780283,"weights":{"0":0.14398455921830056,"1":0.1264365369283092,"2":0.10833746564228268,"3":0.055158690524313096,"4":-0.10406723179496757,"5":-0.7703110895177506,"6":0.0298460860277593,"7":-0.0474031305777976,"8":-0.04382191972770359,"9":0.06709229895675901,"10":-0.27589692274309496,"11":-0.3809612007894729,"12":-0.06133852173459895,"13":-0.07159066879963322,"14":-0.09272961639680653,"15":0.22590734898527307,"16":-0.11966084120244493,"17":0.9101745794892986,"18":0.14373796542900336,"19":-0.17174721849151028,"20":0.14179178401581805,"21":-0.33727760870329565,"22":0.16687125965464125,"23":0.17324548299267015,"24":0.12099692452424797,"25":-0.14425686903812657,"26":-0.12903866674485384,"27":-0.19034267424376855,"28":0.22260029036271864,"29":-0.38861626860943144,"30":-0.1063881623557713,"31":0.13494302231098224,"32":0.15244555781521896,"33":0.04619327397983778,"34":-0.0899883151213237,"35":-0.5369866312302772}},"6":{"bias":0.001947220129959496,"weights":{"0":0.12211235153822339,"1":0.1351241688756165,"2":0.10404264226421636,"3":1.2407932866363796,"4":-0.05130219188249641,"5":0.32035138150439363,"6":-0.051402502344107016,"7":0.029511204022928693,"8":-0.09125162039141177,"9":-0.06052378690879078,"10":0.10846173135875584,"11":0.17918242758662317,"12":0.10987403806537487,"13":-0.03745795069126483,"14":0.005996441815597868,"15":0.265152507979117,"16":-0.6689002138402671,"17":-0.039705715981074405,"18":0.06042753415680768,"19":-0.06720331788634032,"20":-0.063986462212215,"21":-0.5384891012126293,"22":0.8831394462062386,"23":-1.6884511510566709,"24":0.08486898386075122,"25":0.18683991731109903,"26":0.10883805636713612,"27":0.12146555811284016,"28":-0.11413131661778876,"29":1.4216773059240078,"30":0.06562994717841238,"31":0.0928490327566389,"32":-0.08060047712607067,"33":0.3085856212704766,"34":0.19413550485600226,"35":1.2410114767539326}},"7":{"bias":-0.1374915760797565,"weights":{"0":0.10274967863657096,"1":-0.15704844026523326,"2":0.1735166512685243,"3":-0.10845318693328325,"4":0.18805445922932998,"5":-0.3407858047379333,"6":-0.12299144494302262,"7":0.18012044661910973,"8":-0.04099557660905159,"9":-0.11896766495583158,"10":-0.04790309123452668,"11":-0.5943789278045356,"12":-0.1483308165091286,"13":0.08188473553848695,"14":0.14845924868916296,"15":-0.10498307064893958,"16":-0.006109954116287078,"17":-0.4669244570577337,"18":-0.04267159644962332,"19":0.0663742881537619,"20":0.18544200554998388,"21":-0.21891783859561645,"22":0.14822602721224223,"23":0.02301335191735442,"24":0.07352656888418761,"25":-0.07525102779636367,"26":-0.10030424166619116,"27":0.011237153785958149,"28":0.02628406507817958,"29":0.24760382439934708,"30":-0.06111011306496355,"31":0.0062267198920547065,"32":0.06030382487501712,"33":0.28238921819085194,"34":0.07875827575981406,"35":-0.015058117643030418}},"8":{"bias":-0.1275751036056523,"weights":{"0":-0.008296005482015529,"1":-0.1407011222693794,"2":-0.1039321252710909,"3":0.07456234426738945,"4":-0.20778456525007433,"5":0.21793451337339628,"6":0.19719884713230956,"7":0.10888796209023299,"8":-0.011410165525341787,"9":0.24846522750397218,"10":0.0265845104038096,"11":0.0852343408547135,"12":-0.13565091603243798,"13":-0.013684952320310917,"14":-0.036558514586656446,"15":-0.014993369119290001,"16":0.18971267608624706,"17":0.2466412491980009,"18":-0.09138168297023172,"19":0.1627460311061675,"20":0.03039727076670406,"21":0.23238605001948834,"22":-0.05283146243130782,"23":0.1836148382538542,"24":-0.006838152579028031,"25":0.16491932365245943,"26":-0.05287022790071005,"27":0.12599982922634229,"28":-0.10942476888168513,"29":-0.16078166988165424,"30":-0.0153081748417229,"31":0.018835507843754526,"32":0.03578993438330524,"33":-0.08852285802429677,"34":-0.24217890905548434,"35":0.049940602171866424}},"9":{"bias":-0.035995204819613456,"weights":{"0":0.14190792582169443,"1":-0.12728605346902966,"2":0.10686793133723052,"3":-0.03907628478293163,"4":0.08124305717500907,"5":0.685829500513336,"6":0.16883427321508054,"7":-0.05504006654930693,"8":-0.14571991339774382,"9":0.12838084395872168,"10":0.27240430534740995,"11":0.0005149242794870302,"12":-0.0660477542031774,"13":0.016949741421664815,"14":-0.08632150148234237,"15":-0.05111661497302976,"16":0.25470436691596043,"17":-0.6800107200764264,"18":0.061298302516483466,"19":0.02102084759994106,"20":-0.06563216060382566,"21":-0.00970892215807087,"22":-0.18843581952658908,"23":-0.15893900727543397,"24":-0.06955024531798706,"25":-0.10259463273819744,"26":-0.15697087791963588,"27":-0.04264564357252951,"28":-0.010270775591306786,"29":0.5266535107975887,"30":-0.15682523404254037,"31":-0.10959292018497252,"32":-0.13960142647852247,"33":0.11753044358368847,"34":-0.05207245175197881,"35":0.24594100519847767}},"10":{"bias":-0.08773491798978109,"weights":{"0":0.18197949014479933,"1":-0.030750328543776455,"2":0.024026492789154336,"3":0.20272452363867485,"4":0.10552814697215747,"5":-0.12633799270265655,"6":0.08503171248296702,"7":0.06745194732887665,"8":0.00010256261324710296,"9":-0.13170821904239516,"10":-0.0975338628635686,"11":-0.003825577029197719,"12":-0.043602835145216685,"13":-0.10312618321331768,"14":-0.15848893689804214,"15":0.054310815308033666,"16":0.05953879361257814,"17":-0.006265036639311287,"18":0.1032871548802619,"19":-0.19154423501436713,"20":0.00381782349883971,"21":0.1627942459080733,"22":-0.01797070803424975,"23":-0.06787375387009396,"24":0.1628743630404543,"25":-0.1456915450322585,"26":0.023991565073355474,"27":0.16021394789155222,"28":-0.19881374285926548,"29":-0.20486452525588172,"30":0.006622610538259088,"31":0.13572691124916117,"32":0.1853812559821039,"33":-0.2223566045317562,"34":-0.22158636623881486,"35":0.17316301428670833}},"11":{"bias":-0.06896760874480588,"weights":{"0":0.028604272112398715,"1":0.13194045362263496,"2":0.07835653894390035,"3":-0.1558234692541998,"4":-0.2962433106644519,"5":0.11139089835865235,"6":-0.03203893297483189,"7":0.08933856649777934,"8":-0.08358586691918993,"9":0.27741726033120057,"10":-0.14089095661850035,"11":-0.1921750890049204,"12":0.009205726279783288,"13":-0.12368988824686852,"14":-0.08801994479580365,"15":0.06655822059306815,"16":-0.18777912390381737,"17":-0.2848407421977178,"18":0.04804535288054614,"19":0.15239998231949015,"20":-0.17613644653592542,"21":-0.33716872822433835,"22":0.21703608891174941,"23":0.02035357071559275,"24":-0.008209583063025517,"25":0.1486369837773496,"26":-0.0999819622773129,"27":-0.046301378034856705,"28":-0.01160731521763593,"29":0.2775425204590563,"30":0.02860555386960614,"31":-0.0945109274824626,"32":0.057489132687604784,"33":0.1923918056034755,"34":0.05701496045363313,"35":0.276543114244791}},"12":{"bias":-0.03997409601199295,"weights":{"0":0.05518152509585131,"1":0.16759522836837498,"2":-0.1949702000529908,"3":-0.1461909646782952,"4":-0.09866987378013922,"5":0.06326621966228227,"6":0.15478927630035508,"7":0.08817065501315005,"8":0.06708852121931962,"9":-0.6453708402380162,"10":-0.025312080694123298,"11":-0.3381051616636439,"12":0.13390480201216978,"13":-0.10877177407345806,"14":-0.1648829696377489,"15":-0.061722673682903066,"16":0.6336305748221959,"17":0.13253971274315177,"18":-0.1418162386968237,"19":0.17271581090663193,"20":-0.07209481144462915,"21":0.48575122594632786,"22":0.6064739562924633,"23":0.14628376225742812,"24":0.059778738395743186,"25":-0.02003035203981984,"26":0.17708912941120067,"27":1.1502739940518436,"28":-0.44220272392804716,"29":0.21201463344248447,"30":0.16045451941340622,"31":0.136508390239778,"32":0.11859863528853229,"33":-0.1643644612708669,"34":-0.4616374476538018,"35":-0.93417361936492}},"13":{"bias":0.00741086207553567,"weights":{"0":0.09156059660874405,"1":0.00824319334078643,"2":-0.07592070621655661,"3":0.08538855057167023,"4":-0.24831915630378557,"5":0.1585814176341633,"6":-0.014495260855293622,"7":-0.17598785088477734,"8":-0.14259343388116272,"9":0.24514274905535346,"10":-0.07535847885742879,"11":0.3122339165717987,"12":-0.04502901392923594,"13":-0.1699077894839321,"14":0.08982574479560554,"15":0.276066189308962,"16":-0.18551315555855305,"17":0.37183096614973876,"18":0.12930277368866414,"19":0.13992966550931002,"20":0.20094971094579214,"21":-0.38533805654624276,"22":0.43393787879100826,"23":-1.2587764678302573,"24":-0.11591004788062388,"25":-0.16868821838740325,"26":0.1807839045369452,"27":0.018891545262678517,"28":0.1298326385443983,"29":0.7288397538812843,"30":-0.041253922632411996,"31":0.09734420446648646,"32":-0.04161202708882415,"33":0.14081235993948898,"34":0.01548036800923989,"35":0.9411443756568952}},"14":{"bias":-0.05541426987998779,"weights":{"0":0.0003003532711049288,"1":0.09729510754952017,"2":0.13321769528040425,"3":-0.16957121967958216,"4":-0.16638510448646956,"5":0.6281625939398697,"6":-0.17431243552819614,"7":-0.12161148031757768,"8":0.08223808580463396,"9":0.4126528895168455,"10":-0.38097840135325733,"11":0.9303663379541119,"12":-0.18523174001048542,"13":-0.19206925391580806,"14":0.17050858067662322,"15":0.1916069839397216,"16":-0.041842269615415636,"17":0.31959075545669907,"18":-0.11299809622366253,"19":-0.023345000320872417,"20":-0.1897438490175673,"21":0.15422492127442364,"22":0.013787591399017217,"23":-0.34806169379738194,"24":-0.13056219084442594,"25":-0.13299901153268823,"26":0.15335986835959511,"27":0.15896005789110823,"28":-0.0633306166708304,"29":-0.16044823774438652,"30":-0.19750861446067247,"31":-0.1836988807526304,"32":-0.10976286862435652,"33":-0.16639538083707722,"34":0.08954611266169325,"35":0.4406261166619097}},"15":{"bias":0.02302118740712363,"weights":{"0":0.0405559646119594,"1":0.14023462127771796,"2":0.08657971585656271,"3":-0.07473319045136807,"4":0.18525886137318404,"5":-0.12348086927279929,"6":-0.06145201087820177,"7":-0.19090560327540385,"8":0.048009092977766094,"9":-0.3099719585209813,"10":0.04105798379545557,"11":-0.20359563870443806,"12":0.1830119779795432,"13":-0.10253780833853683,"14":0.09144450422909171,"15":-0.041915433857890476,"16":-0.010585827685391926,"17":0.20247283563648702,"18":0.1836955703942124,"19":0.04021578668014227,"20":0.07369485851769159,"21":0.1030882953471912,"22":0.10982534531684673,"23":-0.11071346478877006,"24":-0.1772581093332324,"25":-0.11843418067292226,"26":0.1709181202534408,"27":0.04166875191711815,"28":-0.20724185624129085,"29":-0.016479725783465963,"30":-0.12741933801855196,"31":0.05871631429376531,"32":0.08754975242266405,"33":-0.11443263556629098,"34":0.04768677456846136,"35":-0.4501514342383255}},"16":{"bias":0.14385077767747462,"weights":{"0":0.020482520461265454,"1":0.13648056138875087,"2":0.12022034924884512,"3":-1.105319862495349,"4":0.3191179740447965,"5":0.014702058784395238,"6":0.08326517979457627,"7":-0.17813424805575828,"8":-0.1955188912968089,"9":-0.3406274597840576,"10":0.41386054126494304,"11":-0.31046887539701173,"12":0.14410823463447087,"13":-0.040130445463925295,"14":0.06071057507314471,"15":-0.2919513588199065,"16":0.38373467864473637,"17":-0.1993191650068896,"18":0.055356860408176396,"19":0.18627642643624673,"20":0.04034351749182419,"21":0.5100095774030212,"22":0.15108672399793788,"23":-0.028659572638104182,"24":-0.08207535995516507,"25":-0.08662683702711803,"26":-0.20002513980291392,"27":0.42160272909414415,"28":-0.24817801102571882,"29":0.29352433251365506,"30":0.05189751175953112,"31":0.010463798926182813,"32":-0.16355665650153184,"33":-0.3281482500490015,"34":-0.20142329091141264,"35":-0.08418745871628876}},"17":{"bias":0.0031783251471012505,"weights":{"0":-0.125231645970964,"1":0.046045427127174014,"2":-0.15030972738755405,"3":-0.12721858104317832,"4":-0.19137335468403605,"5":0.044634965749605154,"6":-0.10780407335285752,"7":-0.06330115361308353,"8":-0.04501886066914411,"9":0.04313508855327905,"10":0.019863102893268095,"11":-0.016823482397587627,"12":0.1923387614009548,"13":0.13105755249677065,"14":-0.17328797471848,"15":-0.3028237363217345,"16":0.17852393675486355,"17":0.6471178623296457,"18":0.06939310910506809,"19":-0.10298184116735178,"20":0.0983692432923125,"21":0.5425309961824365,"22":-0.01217696525628517,"23":0.0659625725165023,"24":-0.12625254534178548,"25":-0.024298724078184356,"26":-0.1829123989881064,"27":-0.0011550152738642463,"28":-0.189454803608452,"29":-0.31526001462545383,"30":-0.13803777366662373,"31":0.0028456142818136495,"32":0.057089974111279744,"33":-0.2515207701613449,"34":-0.29999391137637227,"35":0.10210930853506577}}},{"none":{"bias":-1.442185637985342,"weights":{"0":-0.48303044056466266,"1":-0.6716144103368794,"2":-0.2919184957374639,"3":-0.8273656549451575,"4":-0.5360924000393381,"5":-0.9079122698680183,"6":-0.9204675010683809,"7":-0.3393666318514296,"8":-1.0188534256390283,"9":-1.0788538369183525,"10":-1.0529455215010264,"11":-1.1051925963868572,"12":-0.5268743096555233,"13":-1.1011783374971231,"14":-0.6190655785111737,"15":-0.32100140952728834,"16":-0.3042700339723896,"17":-0.6815129643832796}},"mic":{"bias":-1.8621293419002876,"weights":{"0":-1.884721956999724,"1":-3.2244559545607694,"2":-0.7067586568396598,"3":1.1538096210267705,"4":-2.798788997616843,"5":-0.36242799080412713,"6":0.638330785803199,"7":-1.0951782733687303,"8":1.3637494163085706,"9":-1.7948135634362077,"10":-5.993528752516961,"11":2.692664583058579,"12":-1.464954421575429,"13":-0.14512734487501977,"14":0.35458972167331887,"15":-1.6375594444990844,"16":-2.031323815159904,"17":3.6209760755069236}},"stop":{"bias":-1.5022472000757519,"weights":{"0":-0.535421374170399,"1":-0.6208645906384667,"2":-0.9200764671345405,"3":2.17014181834504,"4":-0.8280798864467172,"5":-1.689910596301834,"6":0.6793191400632763,"7":-0.8973466275766598,"8":2.612102736248623,"9":1.0962201099104099,"10":1.42243715230093,"11":-6.706306898152661,"12":-0.40344976659594634,"13":0.5189523768473616,"14":-1.1229754518231805,"15":-2.2612015131304126,"16":-1.760613198396897,"17":-4.225109511612355}},"walking":{"bias":-0.0846117040637069,"weights":{"0":-6.461856591934052,"1":-1.5278153577529303,"2":-8.814136078675558,"3":0.6368214155133857,"4":-1.6162689904368719,"5":0.12704024340158837,"6":-2.15214785463929,"7":5.280481029722123,"8":-8.828630062095538,"9":-0.8026819982626757,"10":3.5874823845262775,"11":3.1609549549947755,"12":1.0839814731861679,"13":-0.9787315358369434,"14":2.6771869686054433,"15":7.075288837743563,"16":10.310861272792545,"17":-0.8199482445286594}},"circle":{"bias":-0.5504466966182392,"weights":{"0":5.635714918041177,"1":2.682989663369888,"2":7.533861351207709,"3":-3.914858607939131,"4":2.7417644361501634,"5":1.2194181319626136,"6":0.24601213148111117,"7":-2.176742647685181,"8":-1.9181691983217561,"9":-0.5350629502494573,"10":-1.4854654168860884,"11":0.0855114218582291,"12":-0.5268563995753667,"13":-1.0051398024249631,"14":-2.6794976405808897,"15":-2.164815347908975,"16":-9.155061370485493,"17":-1.746215774250587}}}],"outputLookup":true,"inputLookup":false}