{"layers":[{"0":{},"1":{},"2":{},"3":{},"4":{},"5":{},"6":{},"7":{},"8":{},"9":{},"10":{},"11":{},"12":{},"13":{},"14":{},"15":{},"16":{},"17":{},"18":{},"19":{},"20":{},"21":{},"22":{},"23":{},"24":{},"25":{},"26":{},"27":{},"28":{},"29":{},"30":{},"31":{},"32":{},"33":{},"34":{},"35":{}},{"0":{"bias":-0.1772779758107249,"weights":{"0":0.27717157447995405,"1":-0.18521210335921492,"2":0.034509263478294874,"3":-0.011492022075914462,"4":-0.19326616803091798,"5":1.004842834703276,"6":-0.016334409037529814,"7":-0.28869655582285303,"8":-0.11442991114323775,"9":-0.013936525270333101,"10":-0.12026725097881097,"11":0.21276830963514473,"12":0.2347074033212898,"13":-0.3105921708804461,"14":-0.00502117814943449,"15":-0.0687496327913669,"16":-0.24006525735121928,"17":-0.6077499844506223,"18":0.00391990053740869,"19":0.012974307565836868,"20":0.17202959465115278,"21":-0.1046761071995718,"22":-0.10534554047906264,"23":0.019112417451325376,"24":0.24284959443859505,"25":-0.18832668762751475,"26":-0.1765278182135183,"27":-0.019157580971526634,"28":0.02857760424506941,"29":0.3618786092549437,"30":0.30494128550864963,"31":-0.2724329901549953,"32":-0.19626244532393874,"33":0.1909934044059299,"34":0.12299491937970375,"35":0.7744498156210999}},"1":{"bias":-0.0699517650529821,"weights":{"0":0.051566171444912906,"1":0.14655260000566347,"2":0.008243537412611975,"3":0.418162112158352,"4":-0.9536875258126203,"5":0.5654986719035586,"6":-0.0998079097811313,"7":0.020675869659512194,"8":-0.06458456008935069,"9":0.49496739956361285,"10":-0.441346436049328,"11":1.7369229073890584,"12":0.07031804614059046,"13":0.17255870226011488,"14":-0.15968866334045598,"15":-0.10233803885935529,"16":-0.05630913388366925,"17":1.201365109554633,"18":-0.22967669408773636,"19":-0.06948354011635971,"20":-0.2097523810705047,"21":-0.13085269494540194,"22":0.19836877543290096,"23":-0.4808326631627384,"24":-0.01944712075547103,"25":0.15395722085583102,"26":-0.17171251816385452,"27":0.008884963995334541,"28":0.1997452741502823,"29":-1.031945568069776,"30":0.0662755006892411,"31":0.1863471998535007,"32":-0.14826056659892778,"33":0.34639927521399494,"34":0.1010222897482174,"35":0.14795021468196484}},"2":{"bias":-0.15045859255373245,"weights":{"0":0.16803967483105967,"1":0.08446590301332454,"2":-0.07163048136234808,"3":-0.6328836129897727,"4":0.05107723399741553,"5":-0.3354385866213063,"6":-0.1673143707743296,"7":-0.001956975152669853,"8":0.07886751088147916,"9":-1.192811568917779,"10":0.3142141635554665,"11":-1.0482285359059336,"12":-0.08291415918229803,"13":-0.1062959481565283,"14":0.12161339604022303,"15":-0.6768441688715856,"16":0.7524945564233231,"17":0.3727794121224467,"18":0.06776183930639444,"19":-0.21239481661942597,"20":0.03608194986871562,"21":0.5076852796781249,"22":0.8132172580705158,"23":0.29106495774149493,"24":0.0939155590458843,"25":0.16304452511123874,"26":0.083391976282399,"27":1.01699796401355,"28":-0.49564185062465094,"29":-0.10381036266584524,"30":0.09091257793603909,"31":0.00706205202803644,"32":-0.10435911983044015,"33":-0.11298266841820802,"34":-0.9223383084179128,"35":-1.0602417649419065}},"3":{"bias":-0.22109575517822425,"weights":{"0":0.27810485961068143,"1":-0.25789482834854893,"2":-0.22335173672531752,"3":1.9774656121333691,"4":-0.26665227962492494,"5":0.5900158471481803,"6":0.2693063425427701,"7":-0.20371320371244003,"8":0.03238563190019836,"9":-0.31533014954894206,"10":-0.22404949682195618,"11":-0.46153937546447366,"12":0.19347384610539844,"13":-0.10071913218452694,"14":0.04472075700881502,"15":0.058714671640744745,"16":-0.06866420227564693,"17":-0.37456928368278913,"18":0.1601266589713,"19":-0.28641636627628675,"20":-0.04335677109484108,"21":-0.4830414571647682,"22":-0.13417914253026894,"23":0.11197941330711189,"24":0.09926825679700234,"25":-0.14281647234025396,"26":-0.032048261270472604,"27":-0.22474668223305325,"28":0.3632742619808222,"29":-0.020658383568645376,"30":0.08904636165866904,"31":-0.07415235582844205,"32":-0.11074892771786216,"33":0.0008687573146167841,"34":0.30151975979896395,"35":0.4285134980586167}},"4":{"bias":0.09006460523591503,"weights":{"0":-0.1131234928500067,"1":0.004028147362198104,"2":0.09384233345995428,"3":0.06136872060010114,"4":0.2982099038955797,"5":-1.2421744736438594,"6":-0.22316665074373787,"7":0.243586610480023,"8":0.13182749348679612,"9":-0.09017500805366568,"10":0.3105368723894337,"11":-0.06555186659135268,"12":-0.07652413191584587,"13":0.32102514437600177,"14":0.0950560652408454,"15":0.251597313364923,"16":0.13404730825323766,"17":1.1456066988735139,"18":-0.14188352531657647,"19":-0.03283964428084954,"20":-0.05767669217710736,"21":-0.040276160498114465,"22":-0.027548789034063558,"23":0.21894105946731754,"24":-0.12719021251626325,"25":-0.0011516653631239116,"26":0.011648315692735051,"27":0.013611589259768112,"28":0.042552178480661174,"29":-0.8798777752299383,"30":-0.25678773428140717,"31":-0.010520559383017455,"32":0.06877666052413406,"33":-0.015391282562365582,"34":-0.14912261337024102,"35":-0.6393882367456902}},"5":{"bias":0.230973552943339,"weights":{"0":-0.14503006994831402,"1":0.3668687965759342,"2":-0.01811697303888405,"3":-1.092218179943653,"4":2.3473535062118187,"5":-0.6695136789010943,"6":-0.07380863842548986,"7":0.2907278437936758,"8":0.040048297726795974,"9":-3.717685307144759,"10":4.308266971922929,"11":-6.572134859445426,"12":-0.1316206933829971,"13":0.33112933913169396,"14":-0.144006212864229,"15":-1.0937349281394293,"16":2.8873998406165424,"17":-3.79642678811082,"18":-0.2392573668465068,"19":0.2936396709364756,"20":-0.17217141559861118,"21":0.9096872539511873,"22":-0.7172516788995041,"23":-1.9243982605643377,"24":-0.03964098831284321,"25":0.004695537050320285,"26":-0.004935592499821314,"27":-0.8259686036470182,"28":-0.31515941641499456,"29":-0.3871270788119856,"30":-0.0809179651554402,"31":0.3187050237000141,"32":-0.07617815221668225,"33":-0.48104486470892144,"34":0.016952706986813854,"35":-0.0254718918465371}},"6":{"bias":0.4297436928118568,"weights":{"0":-0.1924161890748725,"1":0.3101505764461451,"2":0.12172814322665562,"3":0.3263646895285298,"4":-0.23667577011362673,"5":1.4383413094065483,"6":-0.35434123753599867,"7":0.30131678796653966,"8":0.028293883175563122,"9":0.6214375376975325,"10":-0.28117933600388023,"11":0.7158805841244067,"12":-0.14066519729924853,"13":0.2146873229270378,"14":0.3235554516858667,"15":-0.12331540888583635,"16":-0.23506949123515364,"17":-0.2766594568253755,"18":-0.06660268780295678,"19":0.17604797383743187,"20":0.2998188378902151,"21":0.10603771586214707,"22":0.0031781863422785626,"23":0.23922087785763627,"24":-0.14643093114272535,"25":-0.018440722545077812,"26":0.15799893829581396,"27":0.20279357823586885,"28":-0.4533610125973079,"29":0.7382231827750035,"30":-0.05258600751670372,"31":0.35733062331163606,"32":0.35160553370288145,"33":0.3602431050952926,"34":-0.09613097446016643,"35":-0.15485465958848776}},"7":{"bias":-0.20374417089343913,"weights":{"0":0.29344613856134116,"1":-0.3360068319842834,"2":-0.23150163738804674,"3":-0.8748289388686593,"4":0.4038603280236505,"5":-2.329365786503537,"6":0.054275377322502746,"7":-0.273427123553527,"8":-0.18504301622161304,"9":-0.053707431596279206,"10":0.4087860843623598,"11":-0.6393244983485925,"12":0.11726371371744958,"13":-0.34382898431332864,"14":0.08544112938984737,"15":0.6515301616967953,"16":-0.13807813121276802,"17":0.7135655017474147,"18":0.05129534004080385,"19":-0.014406644009416218,"20":0.11397023706146145,"21":-0.2403495988499901,"22":-0.30183493077385054,"23":0.022537781718801442,"24":0.4178013670497258,"25":-0.22890061906662953,"26":-0.2377559461453959,"27":-0.2969471067784166,"28":0.23105780959868172,"29":-0.7430873422336192,"30":0.14373235094004258,"31":-0.18243201065224235,"32":-0.1923517089915706,"33":-0.21232183336489296,"34":0.03491147163424387,"35":0.5715892371932771}},"8":{"bias":-0.39298711104761197,"weights":{"0":0.2527606791096491,"1":-0.12557747871622593,"2":-0.07628148885483003,"3":-0.13596140205802373,"4":0.23607920422509254,"5":-0.4353712194754746,"6":0.2676954586599845,"7":-0.3237826303200509,"8":-0.1260736959424537,"9":-0.4624361018783898,"10":-0.31031206460632893,"11":0.02209580176658921,"12":0.28044657448268007,"13":-0.496633571556727,"14":-0.38158856344726444,"15":0.11818287250010343,"16":-0.25910742290701677,"17":-0.5183554739406715,"18":0.281109475033921,"19":-0.25426173196226504,"20":-0.05129184189790214,"21":-0.018639512638446258,"22":0.07072890616349509,"23":-0.06544254894862822,"24":0.2913001045339863,"25":-0.15758383973079274,"26":-0.3468662348578144,"27":0.09784980099822513,"28":0.08773825496831493,"29":0.2844355932878596,"30":0.40065186183622215,"31":-0.1949479352526166,"32":-0.10605662928588264,"33":-0.17474101834098213,"34":0.08070611617462944,"35":0.5295747352735157}},"9":{"bias":-0.35817040218321206,"weights":{"0":0.0483010082438012,"1":-0.19455122636415262,"2":-0.1571897388574233,"3":-0.7215146068892326,"4":0.8866020994018817,"5":-1.404988444125861,"6":0.04962467246871,"7":-0.19130007505870592,"8":-0.08524514656583128,"9":-1.6968505944547105,"10":1.3678564885570312,"11":-1.3136022477582179,"12":0.3737097596796322,"13":-0.31001497578132686,"14":-0.07330323477145452,"15":-0.3027247261294567,"16":0.2025936306873329,"17":-1.8568345485195414,"18":0.06755875536906113,"19":-0.10109189734609147,"20":-0.17714447279189965,"21":-0.3097227846496091,"22":-0.06558641787390575,"23":-0.01316804138588986,"24":0.03645382956940064,"25":-0.06391677776662115,"26":-0.21624853012624276,"27":-0.016071707682200342,"28":0.09111703673117093,"29":0.06736325864886697,"30":0.17998508440923486,"31":-0.0485705034060013,"32":-0.11318550488524619,"33":-0.24619434617370597,"34":-0.024072366447146703,"35":0.467128164578406}},"10":{"bias":0.20362086653128061,"weights":{"0":-0.19445228348136637,"1":0.024168957705627908,"2":0.28446993188930025,"3":-0.5170683203517851,"4":0.9434018505586069,"5":-1.305559194737802,"6":-0.09951489178587233,"7":0.1201217268924125,"8":0.40395141826632447,"9":1.0618106135939995,"10":0.10927203243109802,"11":-0.3697462108026495,"12":-0.2899171562203115,"13":0.34919660966220356,"14":0.20103089749744815,"15":0.019062134321068118,"16":-0.7982546508143372,"17":-0.7981188443724908,"18":-0.07028018236332739,"19":0.0833436001226201,"20":0.10841886160106012,"21":-0.695605054102709,"22":-0.8947537167058366,"23":-0.4608909257302947,"24":-0.23487087388749547,"25":0.2830311984941138,"26":0.3364144470972252,"27":-1.0862512235501784,"28":0.6052588817785616,"29":-0.004541443432300244,"30":-0.16329515632801195,"31":0.1405007565860677,"32":0.08655186359410959,"33":0.7353471713646433,"34":0.6228849478700836,"35":0.708994174362445}},"11":{"bias":-0.3273056658570403,"weights":{"0":0.27175888758710853,"1":-0.3143770197503602,"2":-0.016606276196196267,"3":0.13933596551493407,"4":-1.747352138973478,"5":-0.557244369653328,"6":-0.11890235057730293,"7":0.008547895614446917,"8":-0.027598814029401387,"9":-5.1738941377871015,"10":1.164653324388671,"11":-2.3656965467135924,"12":-0.08572881597280503,"13":-0.21373293789641545,"14":0.04188183735311054,"15":-1.8244336316947227,"16":4.661900226360573,"17":2.3377823135119176,"18":0.15519884402909892,"19":-0.27573172977204874,"20":-0.14442420700250289,"21":2.1983344990353793,"22":4.291550886732657,"23":2.4308552194328024,"24":-0.05603314445797009,"25":-0.08906430354915475,"26":-0.09531400877832796,"27":7.023272336192534,"28":-2.02702937963626,"29":0.5873903825451289,"30":0.2617637782974608,"31":-0.053970291238729484,"32":-0.3283287949274024,"33":0.03817012886364624,"34":-5.192245866137474,"35":-5.350541640434842}},"12":{"bias":-0.21150835217499717,"weights":{"0":-0.12297628584584883,"1":0.06014925339701241,"2":0.03357573717730046,"3":-0.1360787421037263,"4":1.607934198882869,"5":0.1671760891361586,"6":0.17362118824698689,"7":-0.14645360352981887,"8":-0.23799915296180563,"9":0.2803623691781018,"10":1.1349152038193073,"11":0.6894510392871133,"12":0.12021051965898884,"13":0.05443044402796461,"14":-0.09371438470795704,"15":0.8172954294563272,"16":0.12601984534720384,"17":0.6823859971040207,"18":0.18300014001767378,"19":-0.10148345843041492,"20":0.050571826124147234,"21":1.846146218153584,"22":-1.024704411082811,"23":-0.48118883467298,"24":-0.15257034517514148,"25":-0.09562514284756761,"26":0.052926258913591165,"27":-1.1479329153376732,"28":-1.0998852606839598,"29":-2.0018447220833084,"30":0.0014134628745804487,"31":-0.13230724280562325,"32":-0.055909087598730395,"33":-1.6301482628510144,"34":0.5760831192523281,"35":-0.3576022356821463}},"13":{"bias":0.11147005630958935,"weights":{"0":-0.1853573433190328,"1":0.14876671734127042,"2":0.07185504768733071,"3":0.284449182205627,"4":0.24786936133252918,"5":1.6728820535099236,"6":-0.18081926129193518,"7":0.016647550871687327,"8":0.15722944344308698,"9":-0.1253931519032531,"10":-0.2068260549396817,"11":-0.031418948593612876,"12":-0.024459484608467537,"13":0.07131512258735732,"14":0.019216145467953402,"15":-0.5041274837269941,"16":-0.04046588935525572,"17":-1.2810200286002222,"18":-0.10867288261613012,"19":-0.09327765545157167,"20":-0.010269794039207646,"21":0.15722052816038623,"22":-0.15889459803642106,"23":-0.009678562539694978,"24":-0.0793784874339016,"25":-0.05282251969037111,"26":0.045792533254352875,"27":0.24800216077916754,"28":0.3442713175893686,"29":1.0028049779498827,"30":-0.23668157038640528,"31":0.07623368580597464,"32":-0.06830117413748908,"33":-0.08942561769038916,"34":-0.27603261822124237,"35":-0.0685696741616733}},"14":{"bias":0.5872917509718002,"weights":{"0":-0.3722635472784907,"1":0.4087580966332313,"2":0.3070527195183008,"3":0.3735729202004402,"4":0.35106397669280137,"5":0.23917654305902056,"6":-0.23795370561912743,"7":0.40885237889099574,"8":0.22955089511241183,"9":0.39626618603079805,"10":0.21640964688294503,"11":0.10896356208630642,"12":-0.23690247278559404,"13":0.36612527508697607,"14":-0.059056691290193884,"15":-0.05053295363298451,"16":0.24777805316383783,"17":0.52968799548858,"18":-0.17825339510741575,"19":0.19476329441093843,"20":0.040055454595053754,"21":0.36211463131491667,"22":-0.01243707170368843,"23":-0.09071047801335287,"24":-0.08610740378927158,"25":0.14134040757512198,"26":0.11413440987573718,"27":-0.1987606567828601,"28":-0.4595852126807798,"29":-0.4891484702179056,"30":-0.29223423244151203,"31":0.08169788174874561,"32":0.28263936467770007,"33":-0.04211706794878725,"34":0.042496395715126506,"35":-0.7589458162519245}},"15":{"bias":-0.393007286899176,"weights":{"0":0.36086889488337637,"1":-0.1266155350847391,"2":-0.333212135154431,"3":0.2760933942917943,"4":-0.05597700680219812,"5":0.037081610033174305,"6":0.5086355838613763,"7":-0.3132933765877785,"8":-0.03214522205192397,"9":-0.2915438620838124,"10":-0.295207240832984,"11":0.21650183966493508,"12":0.27768089289715214,"13":-0.27396807039847104,"14":-0.3190320019951205,"15":0.25360611664278965,"16":-0.13076471576407936,"17":-0.28301637492855725,"18":0.5083268037621393,"19":-0.14004959066123351,"20":-0.11905630476870749,"21":-0.24482158905534845,"22":-0.06463453973310328,"23":0.21414506186707444,"24":0.44437758493156326,"25":-0.2819407958818897,"26":-0.1414425422684041,"27":0.034481346401658786,"28":0.021127723626209623,"29":0.2385153424671963,"30":0.3685514693020803,"31":-0.1408967365382181,"32":-0.07373884989778513,"33":-0.19794662031974072,"34":-0.021405494603724807,"35":0.5795443153005292}},"16":{"bias":0.40992564605069615,"weights":{"0":-0.12609164786572596,"1":0.03291541942010742,"2":0.1062499490533037,"3":1.0054864082879063,"4":0.7175455319243245,"5":1.1387726806661211,"6":-0.4027461633091015,"7":0.3960007447080127,"8":0.19656762212540546,"9":-0.539759063730734,"10":0.5216087317421018,"11":-0.5928878129377058,"12":-0.06953745813538958,"13":0.26594287678339834,"14":0.1395940205126901,"15":-0.8198747318496464,"16":0.17565236170411594,"17":-2.124351889748461,"18":-0.09255476274519958,"19":0.3020117812028674,"20":0.15003233046396883,"21":0.06152912237620188,"22":0.03929342423135109,"23":-0.47790587465890716,"24":-0.059320368017955684,"25":0.10795128211379137,"26":0.11549803587316501,"27":0.21943666465499503,"28":-0.17032660623061902,"29":1.0590505668261274,"30":-0.3402055612498996,"31":0.32190583094725983,"32":0.11342571334174087,"33":0.29624058611641546,"34":0.1331303031765123,"35":0.8935169079175636}},"17":{"bias":0.45112541378785725,"weights":{"0":-0.330239398955506,"1":0.42563201684091595,"2":0.33253134497322717,"3":0.02656545487614829,"4":0.31287377828969837,"5":-0.5703266403593289,"6":-0.3297263337968305,"7":0.3847764245911411,"8":0.2597468672319596,"9":0.0765596792782916,"10":0.6194049244092417,"11":-0.34094017419434636,"12":-0.09424273697339386,"13":0.4094138681807754,"14":0.33750643630777544,"15":0.17516476967952782,"16":-0.5118903419468951,"17":-0.1414603427492161,"18":-0.20811489566962713,"19":0.3174699190761577,"20":0.3360703257757791,"21":-0.34617752198050555,"22":0.3288612813140134,"23":-1.1052063043032896,"24":-0.3140726940626426,"25":0.33006376160294454,"26":0.32060508778109237,"27":0.394009111639054,"28":-0.036323078228338725,"29":0.9047492293663423,"30":-0.3884557911251108,"31":0.0725672814542557,"32":0.06916400234325686,"33":0.9208302155703078,"34":0.0122559867094397,"35":0.00971679736985665}}},{"none":{"bias":-2.1923198943072695,"weights":{"0":-1.0022724949604511,"1":-1.2115296750709363,"2":0.7587907173062373,"3":-5.540411889373292,"4":-1.960241269627757,"5":0.8874614926996259,"6":1.2743209472704453,"7":-4.53397447425035,"8":-3.8036134588329187,"9":-1.7229121683685809,"10":-1.2277325348457417,"11":0.6679247437073904,"12":1.0694159164748194,"13":3.242712708210681,"14":2.262943592425956,"15":-7.9553512944069205,"16":3.5620319395859736,"17":5.899845479654915}},"mic":{"bias":-1.095195717074983,"weights":{"0":2.39582564735667,"1":0.7643875161290908,"2":-0.8521222524898665,"3":0.06820367347538336,"4":2.3217705126920607,"5":-1.1560939995478723,"6":0.4033083181553741,"7":-0.8051783166577194,"8":-1.3688364808787425,"9":-1.0715550586383489,"10":-2.538663282908331,"11":-5.565326635358322,"12":-5.154394124640171,"13":-1.9485931702343235,"14":1.6787865787990057,"15":3.885087525831576,"16":-6.100429698923294,"17":-1.646915902231107}},"stop":{"bias":-3.02167908979841,"weights":{"0":-0.4696801209949933,"1":-0.14583298819364288,"2":-6.816949044268478,"3":1.0966145401502119,"4":-4.9140264070761095,"5":0.9772211299524834,"6":0.2266057353272398,"7":2.1696013645094854,"8":-8.327893058272037,"9":-1.387981624258449,"10":1.228659353023667,"11":4.928008623528202,"12":4.8763499097352865,"13":-1.3062583027709251,"14":-3.0528997195111147,"15":0.4938738845767836,"16":6.1284273498340065,"17":-9.163375658801947}},"walking":{"bias":5.645137894287352,"weights":{"0":-5.9373409924613565,"1":7.530837742417007,"2":4.174308696076346,"3":-5.41274143262358,"4":1.4055330040634235,"5":10.417838129561494,"6":-7.788433931965446,"7":-4.2589067795761775,"8":16.96497686298258,"9":-0.041895480092050234,"10":-3.1349825569774237,"11":-4.011346751758797,"12":1.868144004255237,"13":1.8320306206936412,"14":-8.14048365600526,"15":1.3731298340100941,"16":-5.171638317983047,"17":-6.211528790264434}},"circle":{"bias":-2.7641711351438794,"weights":{"0":-1.86072496674662,"1":-3.284228958483721,"2":-0.751198148782578,"3":5.726740725362419,"4":-1.7982891415112006,"5":-10.44829550875884,"6":-2.669842500028499,"7":5.083026640038654,"8":2.3941069013603906,"9":-0.48632473592626585,"10":1.7830020506247966,"11":4.099686720797022,"12":-2.3025668128138537,"13":-1.8120160056540713,"14":-4.0938684853692004,"15":0.018729899197849866,"16":-0.09628970112939698,"17":2.8761477624969123}}}],"outputLookup":true,"inputLookup":false}