{"layers":[{"0":{},"1":{},"2":{},"3":{},"4":{},"5":{},"6":{},"7":{},"8":{},"9":{},"10":{},"11":{},"12":{},"13":{},"14":{},"15":{},"16":{},"17":{},"18":{},"19":{},"20":{},"21":{},"22":{},"23":{},"24":{},"25":{},"26":{},"27":{},"28":{},"29":{},"30":{},"31":{},"32":{},"33":{},"34":{},"35":{}},{"0":{"bias":-0.09892757459877859,"weights":{"0":-0.002778881006300294,"1":-0.09419124535847079,"2":-0.09436090105285147,"3":-0.5052329060186181,"4":-0.40017523426427076,"5":-0.4336725240466273,"6":0.12005415437335482,"7":-0.02987960658415861,"8":-0.24950308442280072,"9":-0.1900386143654346,"10":-0.11389312715241287,"11":-0.5734862990561872,"12":0.13783237989064281,"13":-0.18973306137857743,"14":-0.2670661552112169,"15":-0.5962260276248268,"16":-0.0673309703566942,"17":-0.4887354200993256,"18":0.15000678739830056,"19":0.09612087900133913,"20":-0.10951377679244098,"21":-0.7241314640257039,"22":0.29577440968738516,"23":0.05341252141030038,"24":-0.07932833978513305,"25":0.03676612691454369,"26":-0.20996331191150489,"27":0.3540254932177657,"28":0.4485440035294162,"29":0.5451440898932083,"30":0.06473243438890733,"31":0.09878836935632616,"32":-0.09381676141405969,"33":0.24416698788833335,"34":-0.25586870520308524,"35":0.12657864351887188}},"1":{"bias":0.017998921885034946,"weights":{"0":-0.09070433164133346,"1":-0.1348338958459783,"2":0.027845322157910118,"3":-1.1199156850748653,"4":-0.013618151079380914,"5":-0.24443157720889097,"6":-0.08759489195672292,"7":0.17907437398438716,"8":-0.053911652187977485,"9":-0.11559316459556154,"10":0.13595169932697349,"11":0.0564780488876083,"12":-0.14708004401556943,"13":-0.01807834953860023,"14":-0.15010551559452417,"15":0.06261234212307845,"16":0.16644423187296375,"17":0.06063999721241455,"18":0.11871782737379034,"19":0.021266784538283515,"20":0.1500461540207067,"21":-0.04698652512669301,"22":-0.058056534648768816,"23":0.03771738722436556,"24":-0.08438850177542152,"25":-0.0975883865267922,"26":-0.12220925621028347,"27":-0.118611010544099,"28":0.16809379154490608,"29":-0.16356526752269757,"30":-0.1349404999039922,"31":0.1300939113885553,"32":-0.2026789408104801,"33":-0.22708407796105615,"34":-0.18303006877966974,"35":-0.22329729154305736}},"2":{"bias":0.060672179471200044,"weights":{"0":0.18518468123992715,"1":-0.08502795815051375,"2":0.09280494316817633,"3":-0.7727412034795906,"4":0.5553552496917575,"5":-2.023697892684151,"6":0.17177231610775237,"7":-0.18849132189180165,"8":0.12034448610812483,"9":-0.38028584559221446,"10":0.20815402193319413,"11":-1.5355235502639746,"12":0.0447442834893887,"13":-0.09057948597699506,"14":-0.22230958002725343,"15":0.2488614462302965,"16":0.18952224480062146,"17":1.2651099061430935,"18":-0.04372353290191533,"19":0.11209246721158016,"20":-0.023062273316758492,"21":-0.11405844557337792,"22":-0.012874457405423187,"23":0.6069728860464412,"24":-0.00866205678701494,"25":-0.11038823429367757,"26":0.006090622961038188,"27":-0.5811847760929092,"28":-0.14721845386961052,"29":-1.026794546557946,"30":0.13319228793536333,"31":0.11903336809774871,"32":0.11603374053234942,"33":-0.3893939149400556,"34":-0.20346257985287589,"35":-1.018028275484211}},"3":{"bias":0.1883640844556697,"weights":{"0":0.08200385746014938,"1":-0.035248635582145624,"2":0.05097996117638416,"3":0.2817579602773707,"4":-0.3531928315963199,"5":0.3224806052272336,"6":0.16360254968725943,"7":0.016869768443897,"8":0.20922489662751426,"9":0.32986812909756447,"10":0.00897324522958689,"11":0.38656453489524817,"12":-0.15492700017789604,"13":0.03847341045358741,"14":-0.04892825029592536,"15":0.011443270074018165,"16":0.1867983908261514,"17":0.4467709562744069,"18":-0.004474571132001459,"19":-0.1752201282785148,"20":-0.02345449074057914,"21":0.13068128546364968,"22":0.2865475147106616,"23":0.11268002495828645,"24":-0.17289947904955455,"25":0.07299966673132377,"26":0.31464116053022523,"27":-0.017285168405125936,"28":-0.1358467112749208,"29":-0.19685004513604884,"30":0.042138751628227625,"31":0.027003369609586683,"32":0.15630617436751765,"33":-0.17556152989077067,"34":-0.11270183699697292,"35":-0.1062004082356633}},"4":{"bias":0.0497708910472317,"weights":{"0":0.07080087542029814,"1":0.061305921158250114,"2":-0.11571487976407302,"3":0.177533157865609,"4":0.7945236259550494,"5":0.6327103192236122,"6":0.1525297989350206,"7":0.01204541768505071,"8":-0.22357828008513433,"9":-0.7303911330055198,"10":1.059600680618346,"11":-1.0014025093310686,"12":0.056661768868516094,"13":-0.10142500228020139,"14":-0.039266964429639034,"15":-0.2874098286698191,"16":0.2544048078302915,"17":-1.2256704545976342,"18":-0.087516796664824,"19":0.03852969865771636,"20":-0.12386773263981722,"21":0.6081689696444879,"22":-0.11873771606726728,"23":-0.1726333363680849,"24":0.07297200752635588,"25":0.14209597122823142,"26":-0.18302950352555233,"27":0.37975749521025487,"28":-0.22301147944203706,"29":0.4549721316463963,"30":0.09621109268203618,"31":-0.08315372258250485,"32":-0.2126974138619482,"33":-0.16915171898568906,"34":-0.34021556331095326,"35":-0.25788336698900804}},"5":{"bias":0.07553643737111325,"weights":{"0":-0.18736315868403697,"1":-0.17451609542653318,"2":0.003972992772474493,"3":-0.09691726641702711,"4":-0.1629750828419745,"5":0.9668193098894582,"6":-0.07717595903117734,"7":0.09065647294117792,"8":0.045039561049263405,"9":-0.30915090989889416,"10":0.28364635178139147,"11":-0.6921599717843457,"12":0.1461664497127369,"13":-0.12243647919570967,"14":0.06330267942671007,"15":0.06992159675425888,"16":0.47347207062872176,"17":-1.1067021565621604,"18":0.12736497822963389,"19":0.11726395417541709,"20":0.0189880009580029,"21":0.06198546830492912,"22":0.09130904206192662,"23":-0.14486860291110745,"24":-0.009240763683062255,"25":-0.20775221338558078,"26":-0.25674852923557034,"27":0.12152501184784399,"28":-0.49262111301240397,"29":0.8819602307380976,"30":0.022083256296443435,"31":-0.019842045347823266,"32":-0.23477032803437647,"33":-0.25041063678532266,"34":-0.2744224245700606,"35":0.38124722872561184}},"6":{"bias":-0.06365310468738114,"weights":{"0":-0.1722978012398119,"1":0.1567790538324521,"2":0.1070184953286677,"3":-0.38370772480285315,"4":-0.3419557970905383,"5":1.3283522663359044,"6":0.10415311356020591,"7":0.00897108230240815,"8":0.07228844033658208,"9":0.10783796155542771,"10":-0.28163979743245854,"11":0.8479216870300217,"12":-0.06915653039747383,"13":0.03332664262287025,"14":-0.08147699691928846,"15":0.11069072282799257,"16":-0.003625485102515866,"17":-0.03515764435590541,"18":0.004485799970876436,"19":-0.16590829387594047,"20":0.2497180854643005,"21":0.13342341052429305,"22":0.05305165020265725,"23":0.10948548021522916,"24":-0.1925112074337723,"25":0.1353479318300135,"26":0.22802616184492713,"27":0.2654154645044868,"28":0.8688953848175105,"29":-0.6284979654501655,"30":-0.04323474534051424,"31":0.0767960705930976,"32":0.11383465376749825,"33":1.0195674838241586,"34":0.4082358055797733,"35":-1.2164718848564584}},"7":{"bias":-0.003982452436325821,"weights":{"0":-0.10454615682122724,"1":0.09741377511583284,"2":-0.08976020768454257,"3":-0.21184312385411516,"4":0.021760494069549757,"5":-0.19814354236328932,"6":-0.13019161284588562,"7":0.13258727335012813,"8":0.024533082922655925,"9":-0.2587249553361803,"10":0.22987206961661683,"11":-0.3768022771943159,"12":0.1519109672976457,"13":0.02246764752593724,"14":-0.14396773285900238,"15":0.03802235222761806,"16":1.3229165887450678,"17":-0.6794799812121471,"18":-0.036317020673095037,"19":-0.05161476827574998,"20":-0.1573819577822566,"21":0.5702046084537413,"22":-2.131775362502687,"23":3.729312788518017,"24":-0.18415909742047445,"25":0.0697809807460845,"26":0.0845898853962084,"27":-0.4959582014895175,"28":0.009816262670219135,"29":-2.932154646087559,"30":0.007983770431245435,"31":-0.06458804036043633,"32":0.14010929703086844,"33":-0.8805509129543044,"34":-0.7894540293429966,"35":-2.884035301591419}},"8":{"bias":-0.1836067459888524,"weights":{"0":0.00859188603963445,"1":0.05097136246386499,"2":0.02502775597270424,"3":-0.17752392281297347,"4":0.20071561586205058,"5":-0.11309878709902106,"6":-0.009961227313097558,"7":-0.06658957717389563,"8":-0.25708520172969385,"9":-0.5330983272401151,"10":0.4073222872866961,"11":-0.7808702825199143,"12":-0.17916267733687916,"13":0.03307172360049457,"14":-0.15780118021944886,"15":-0.0034528977901487562,"16":0.25419761409052155,"17":-0.5022874850459267,"18":-0.005978482656498644,"19":0.06780366282376145,"20":-0.253556387950113,"21":-0.29498312863939574,"22":-0.06163938112887193,"23":-0.49692686559159516,"24":-0.08117502181937757,"25":0.1426335807810945,"26":0.020289792589132473,"27":-0.10759487784907637,"28":-0.03186501519838023,"29":-0.08313414526493912,"30":-0.013609157025005992,"31":0.15006298407446747,"32":0.05165862927895884,"33":0.14210837890258676,"34":0.23525961998235395,"35":0.49040676133801864}},"9":{"bias":0.1931069316006402,"weights":{"0":0.17395900394586092,"1":-0.07449166136265056,"2":-0.04452409416494025,"3":0.3679181450754703,"4":-0.5968563775036347,"5":0.7302706880198964,"6":0.14834170710145742,"7":0.022362978793672817,"8":0.17636966225719553,"9":0.3967224755573004,"10":-0.21866532260906102,"11":0.7096510953568312,"12":-0.018576402902291667,"13":0.07864126861120685,"14":0.12921169467898969,"15":-0.013947685574911172,"16":-0.4662763923620706,"17":0.08812829868892193,"18":0.07002104060639305,"19":0.006523568194219885,"20":-0.07382334072078699,"21":-0.00245854728461826,"22":0.04006404258528222,"23":0.1142915873352886,"24":-0.08078068757672444,"25":0.07459452433934928,"26":0.16974429426121795,"27":-0.30566277128231306,"28":0.05374679908231781,"29":0.23875829222271228,"30":0.06683638753236885,"31":0.09176034625789327,"32":0.1186566290448582,"33":0.22558861549822798,"34":0.28474728283155476,"35":0.16263723612998837}},"10":{"bias":0.06942577744207194,"weights":{"0":0.052615706371631606,"1":0.15992413309886758,"2":0.22670313299399011,"3":0.3336895568244179,"4":-0.15201409353963038,"5":0.4491801764098112,"6":0.10001013233369245,"7":0.042718313129090114,"8":0.19135836505964904,"9":0.0744925597005272,"10":-0.15770102627613242,"11":0.2420700756702802,"12":0.03402825126625567,"13":0.15159442207424212,"14":-0.017757166797843383,"15":-0.15208198359858247,"16":-0.2985854796452113,"17":-0.08467206139625112,"18":-0.16651480776011962,"19":0.15531764397860698,"20":0.01628815818452945,"21":-0.272344504878752,"22":-0.029972733476544618,"23":0.13749929209563658,"24":0.18820342975503732,"25":0.13528623083521563,"26":0.22926570575334887,"27":-0.053580901488325144,"28":0.12477130699156204,"29":-0.031875773947951866,"30":-0.14795992391377408,"31":0.054548322486785907,"32":-0.13781730638305423,"33":0.12146592438697547,"34":0.4385250116767873,"35":0.03139450047763999}},"11":{"bias":-0.08037863687611266,"weights":{"0":-0.17315582195244292,"1":-0.10836636287313339,"2":-0.21613282509161783,"3":-0.8514204862913151,"4":-0.4123487971377921,"5":-3.3952671243567307,"6":0.1429080088286366,"7":0.1606405137142978,"8":0.10148743926767191,"9":0.3534327817207157,"10":0.10419456490104725,"11":0.18218501686440458,"12":0.11781017864898814,"13":-0.1479654850102228,"14":0.06616643187507247,"15":0.4878870940480342,"16":0.315284672466487,"17":2.3214896142530757,"18":0.038777616382937315,"19":0.03507918290363137,"20":-0.12311111532372533,"21":-0.17875431022896243,"22":-0.0659147893439258,"23":-0.3110296515507613,"24":-0.1381105419230015,"25":0.054027932815885214,"26":-0.03653103950334112,"27":-0.4382359780119068,"28":-0.40018482794908644,"29":-1.8862913560952228,"30":0.18012703796480653,"31":0.12837386063281833,"32":-0.0024685168088411664,"33":0.2550425338318097,"34":0.41865857173575893,"35":-0.08504935010797868}},"12":{"bias":0.004431029910039036,"weights":{"0":0.149407232861493,"1":-0.1254641299960989,"2":-0.11982932962391782,"3":2.019756201463585,"4":-0.0658221320218101,"5":-0.044494662731993075,"6":-0.0420455993989748,"7":0.10807593915080915,"8":0.11271523383067188,"9":0.5675546714873739,"10":-0.32893548033671177,"11":-0.8580574035246387,"12":-0.05093388723035365,"13":-0.07131237270789276,"14":0.06864773923723874,"15":-0.4700072593712284,"16":-0.43200955158169224,"17":-0.3993005706661507,"18":-0.12707475664452808,"19":-0.16788366781803332,"20":0.01246450407944971,"21":-0.9113051650720152,"22":0.3474462163964115,"23":0.0230506688753841,"24":0.0047091962387695125,"25":0.10330875436403068,"26":0.05883872197393271,"27":0.20688995408075384,"28":0.6267995122587324,"29":0.7368094976552226,"30":-0.17160646342303823,"31":0.03315683856079089,"32":-0.16583505734756057,"33":0.8839301011584827,"34":-0.20384641140668391,"35":0.25697924503419695}},"13":{"bias":-0.09841196019710734,"weights":{"0":0.19905993419102735,"1":-0.18525163510348386,"2":-0.02743981593574017,"3":0.6446492689684628,"4":-0.14504162212629232,"5":-1.6960343800105548,"6":0.09604023978768417,"7":0.08340260285330335,"8":-0.2165026106135941,"9":0.1627052101276489,"10":0.16136282482821912,"11":0.8911113221467784,"12":0.10436608105514607,"13":-0.11983175648902099,"14":-0.10352893914302809,"15":0.25663643476957615,"16":-0.1564756173849387,"17":1.654223468809775,"18":-0.14057791519569326,"19":0.1951149615828746,"20":-0.06972545520304577,"21":-0.15065361511956568,"22":-0.17951572332875018,"23":-0.7624287446551752,"24":-0.12343675093346292,"25":-0.09139802646112714,"26":-0.06426104176810425,"27":-0.24739023588732972,"28":-0.06909549750264674,"29":-1.1892622544455356,"30":-0.17609124014033928,"31":-0.08704374216929016,"32":-0.07842548432416044,"33":-0.11855446842652215,"34":0.05206145588391733,"35":0.3125949076519398}},"14":{"bias":-0.11596746430364768,"weights":{"0":-0.011453589055456915,"1":0.05126038118738891,"2":-0.16036525143697597,"3":-1.5207970021319737,"4":0.2083031671818678,"5":-2.579515966171123,"6":0.09807653576751198,"7":0.05640764276951382,"8":0.015997321517839072,"9":-0.34878340561949267,"10":-0.2783121472407855,"11":-1.3913957448663856,"12":0.15955898446167724,"13":-0.11416209688390963,"14":-0.2149164817930154,"15":0.6799517931689965,"16":0.055543003827324036,"17":1.7847854155571832,"18":-0.10856690867734621,"19":-0.01824006968633678,"20":0.09507130582641046,"21":-0.21559960968286943,"22":-0.14290021770859077,"23":0.845023246915499,"24":0.06223738724470543,"25":0.05863357018019585,"26":-0.2046889132472018,"27":-0.15761768497576523,"28":0.2670171568919345,"29":-1.0319230376802027,"30":-0.17395820231918285,"31":-0.18119535787436045,"32":0.024281211602362,"33":-0.3831199790150715,"34":-0.5707170037082209,"35":-1.2002752988497865}},"15":{"bias":0.11608701457190751,"weights":{"0":-0.02022277285678461,"1":-0.1678482541771426,"2":-0.11960776133402208,"3":0.6043340113027382,"4":0.747826305697977,"5":-0.6485461196280966,"6":0.00353517418496257,"7":0.1293428935683473,"8":-0.22921522493112353,"9":-1.7255891599040805,"10":0.8853463785505589,"11":-2.59636005831365,"12":0.0632066337690799,"13":-0.0034398174355011633,"14":-0.043522465708137795,"15":-0.5675268962555178,"16":0.7357251478744086,"17":-1.7530795648749546,"18":0.13370448195738463,"19":0.15993841795998678,"20":0.14650600807973993,"21":-0.30449374391885364,"22":-0.10476989795585914,"23":-0.716020638131382,"24":0.043031093185487916,"25":-0.13831798002699783,"26":-0.13065680398383137,"27":-0.07445630880613922,"28":-0.0033672683111946357,"29":0.1286894412543852,"30":-0.19789213409343276,"31":-0.0781270569391746,"32":0.06981937720698332,"33":0.08258975194045966,"34":0.019436389544030777,"35":0.48024878198297644}},"16":{"bias":0.24590065518351575,"weights":{"0":0.16036090773965841,"1":0.15479597136478432,"2":0.0499342733614336,"3":0.507813910434392,"4":-0.14753604473443938,"5":0.4389653073398464,"6":-0.10267501652296303,"7":0.021758367100229464,"8":0.2837568150453305,"9":-0.14415209226719175,"10":-0.12595484426300582,"11":0.1736608691992055,"12":-0.10630913991018545,"13":0.06221425642986976,"14":0.02288640415625737,"15":-0.2383253971588189,"16":0.07048636534788048,"17":0.6404227614548711,"18":0.1645762340257115,"19":0.08176313813330473,"20":0.2036707438049323,"21":0.611727468113671,"22":0.22661220236993646,"23":0.13414454252263483,"24":-0.1834965274801009,"25":0.1822153121621062,"26":0.260282409349883,"27":-0.20185659989875823,"28":-0.21024025785045658,"29":-0.34210194079833406,"30":-0.016891390295619348,"31":0.06167527695163343,"32":0.0909151249630295,"33":-0.17419917985851516,"34":-0.09830565633021086,"35":-0.25981422877100024}},"17":{"bias":-0.1537599684466271,"weights":{"0":0.12181647538603264,"1":0.04765216270284544,"2":0.04905309228985761,"3":-0.494320000535974,"4":0.5838579289983723,"5":-0.9997048780258361,"6":0.07785252387042393,"7":-0.09027230922734135,"8":-0.029938369832250764,"9":-0.6293955759713118,"10":0.9213625880948045,"11":-0.7107120994329029,"12":0.08479494744024965,"13":-0.1543880884551171,"14":0.023643169595560724,"15":-0.3010350102057217,"16":0.36668616896384626,"17":-0.7742002783842746,"18":-0.060639510503892574,"19":-0.0509409670521331,"20":0.059618953001938264,"21":-0.35336451433308486,"22":-0.38726788703933124,"23":-0.6572823785560011,"24":-0.1838690837272064,"25":-0.05546329292131466,"26":0.03586763759845872,"27":-0.40097513074402624,"28":0.09684410243806606,"29":-0.08853500957061616,"30":0.09009649024539583,"31":0.09299871080736603,"32":-0.063736265625381,"33":0.053770449145171956,"34":0.0682611496824328,"35":0.32790372496925013}}},{"none":{"bias":-1.4823421906763872,"weights":{"0":-0.5394709124431727,"1":-0.27108412526608044,"2":-0.42461845997906655,"3":-0.740662222599513,"4":-0.45036664489905925,"5":-0.5344501565926137,"6":-0.7398537427592151,"7":-0.296765435384739,"8":-0.7642325315309343,"9":-1.2764266200454586,"10":-1.0201919235668309,"11":-0.47580155321407724,"12":-0.9143379819152294,"13":-0.7693416438687684,"14":-0.30581322823731294,"15":-0.5598723937533719,"16":-0.8588421624242365,"17":-0.3483761395819188}},"mic":{"bias":-2.6666945419094783,"weights":{"0":-3.9740303482323216,"1":-0.4219834473333208,"2":-3.3939880689470425,"3":1.1937277625746985,"4":-2.3681876361195733,"5":-5.139786813844904,"6":-0.8806805515994097,"7":0.12133343919862248,"8":-5.2475105402116915,"9":4.239865251881897,"10":4.199447896431198,"11":1.2511287563364264,"12":-0.3295202555699809,"13":-1.9715635531172417,"14":-3.5915419107136484,"15":-8.193296371144145,"16":6.055176062975463,"17":-4.303231836323422}},"stop":{"bias":-3.311433134112903,"weights":{"0":-4.229052414342272,"1":-0.8530172182457068,"2":-0.6946674934193079,"3":2.051193805297078,"4":2.2465129622189575,"5":1.8113387013649243,"6":-0.8597215091454794,"7":-1.499912257348421,"8":-2.9842955688461403,"9":-3.007861943076106,"10":-3.4249842773041967,"11":-5.438732798540754,"12":-1.4543443678548933,"13":0.7089397982522216,"14":-1.1960344434754313,"15":8.040771554602507,"16":1.7315832422564374,"17":-2.544094364102771}},"walking":{"bias":-2.631071630567603,"weights":{"0":-2.2304290749283266,"1":-1.4947426990621744,"2":1.5449800091913253,"3":1.1378324068970989,"4":8.417518409931388,"5":-2.6158584130532665,"6":5.336018283735104,"7":0.22478424506915765,"8":8.173840402850528,"9":-2.115172285198549,"10":-3.509042419696426,"11":0.711356569346705,"12":-2.484950788899003,"13":3.002043632759935,"14":-0.2985709140719178,"15":-2.0982288884522693,"16":-6.67628897802386,"17":-5.515193626862867}},"circle":{"bias":1.414537040181624,"weights":{"0":2.460089830364848,"1":-0.09780671926734066,"2":1.6472107107834706,"3":-7.104413866412492,"4":-8.198184686417433,"5":2.378431163677595,"6":-2.997478367156991,"7":-1.018558707904116,"8":-7.288751124830583,"9":0.1294287314601204,"10":2.4767854165360665,"11":-1.960180938717547,"12":2.896912112388281,"13":-0.7171755234538518,"14":1.6840538894902497,"15":2.8110625075004867,"16":-4.197979497225862,"17":7.542273566920387}}}],"outputLookup":true,"inputLookup":false}