{"layers":[{"0":{},"1":{},"2":{},"3":{},"4":{},"5":{},"6":{},"7":{},"8":{},"9":{},"10":{},"11":{},"12":{},"13":{},"14":{},"15":{},"16":{},"17":{},"18":{},"19":{},"20":{},"21":{},"22":{},"23":{},"24":{},"25":{},"26":{},"27":{},"28":{},"29":{},"30":{},"31":{},"32":{},"33":{},"34":{},"35":{}},{"0":{"bias":-0.19616213836978705,"weights":{"0":-0.19211855739285014,"1":0.0928900424735672,"2":-0.03860541206219849,"3":0.21138201814402272,"4":0.1787794389756615,"5":-0.06631227842356922,"6":0.13505411007080295,"7":-0.09388372290661537,"8":0.02554201979356361,"9":-0.23444514201653627,"10":0.4511213963549758,"11":-0.24954618424077926,"12":0.17657823923613408,"13":0.008364679066560486,"14":0.08649922489300367,"15":-0.21686583538254886,"16":0.03895975924538222,"17":-0.2964004711062609,"18":-0.1197881731170728,"19":-0.19605269546092116,"20":-0.18546952552907991,"21":-0.3275261576400094,"22":0.038113632514973905,"23":-0.34317569079921006,"24":0.17924763602912044,"25":0.06996003930842291,"26":-0.0002340844984393255,"27":-0.20915818608825634,"28":0.10161215653367485,"29":0.1251155668643867,"30":0.11014448442323399,"31":0.08330362980486172,"32":0.18837938832572082,"33":-0.05285519065951355,"34":-0.1276888975540629,"35":0.26446854721857266}},"1":{"bias":-0.10720729269395915,"weights":{"0":0.01478952687517347,"1":0.10848396807223436,"2":0.054877041007678304,"3":-0.029621982651708765,"4":0.24430553470194327,"5":0.07055689640913855,"6":-0.08301045866530612,"7":-0.19830683109401365,"8":0.18162212032458136,"9":-0.16292391637597028,"10":0.11568114413583284,"11":-0.2709688994646104,"12":-0.13011287586039366,"13":-0.07780096466106085,"14":0.061064786961247716,"15":-0.007842259288615025,"16":0.208687128004678,"17":0.10119631142378595,"18":0.19143789720267368,"19":0.12142397423810554,"20":-0.08320390305544745,"21":-0.059518952613080184,"22":0.0800440806486395,"23":0.07203245833479144,"24":-0.03269515536918264,"25":0.15814057476675483,"26":0.15509510086625847,"27":0.03441054999054796,"28":-0.1412837265063022,"29":-0.06161774370429188,"30":0.13883067985617256,"31":-0.09241913644953839,"32":-0.14636363091430693,"33":-0.1400668381277287,"34":-0.12851546213793089,"35":-0.052284459462283266}},"2":{"bias":0.07020819627630881,"weights":{"0":0.18709194875080343,"1":-0.12399663808432489,"2":-0.137961369883281,"3":0.22087438223137262,"4":-0.015502096065705689,"5":-0.032144481679484006,"6":-0.006474169411600439,"7":0.022256175955443613,"8":0.07777269419842296,"9":-0.17905902452724623,"10":-0.011957996960636905,"11":0.024605797687161448,"12":0.08517440722794917,"13":-0.14868786880474916,"14":0.011859533147341837,"15":0.11104486093000185,"16":0.18629285171068097,"17":0.2661199423372739,"18":-0.13489731649981176,"19":-0.16252900699741965,"20":-0.05281965081386604,"21":0.04815663641256349,"22":-0.17424889046697087,"23":0.13556247580741732,"24":0.16060882764336842,"25":0.13198354324947326,"26":0.06287231054937766,"27":0.003388761836380647,"28":-0.20680106171775953,"29":0.09583451231194524,"30":-0.008462091028970867,"31":0.05140524653257349,"32":-0.12352944358046505,"33":-0.15620973254953058,"34":-0.20717187750728722,"35":0.07465803488091244}},"3":{"bias":0.11139018441485062,"weights":{"0":0.06132299234473535,"1":0.06988132849908676,"2":0.17956801346441398,"3":-0.014292290873074176,"4":-0.00821582437429481,"5":0.10415571412223235,"6":0.10895560281654604,"7":-0.042158108454175156,"8":0.01311386724472796,"9":0.11529078205240093,"10":-0.0738364666537839,"11":-0.10948289822679197,"12":0.13462726319491689,"13":0.1782878806039744,"14":-0.10938932441536549,"15":-0.061529282126774894,"16":-0.09329961864407771,"17":0.1383265857243124,"18":-0.17076035419510502,"19":-0.13590422804272967,"20":-0.020747160835467657,"21":-0.14812648622710617,"22":-0.13727968205179053,"23":0.032494952794400636,"24":0.17715180704041933,"25":-0.06712674057339456,"26":-0.05824223116119667,"27":-0.21794669347572343,"28":-0.12065773011598581,"29":0.15336945237743968,"30":0.19721039545903152,"31":-0.10090563819858889,"32":-0.09532349918445539,"33":-0.13165834926140202,"34":0.20909569186487445,"35":-0.1062548389223483}},"4":{"bias":-0.07942799029847084,"weights":{"0":-0.052218760999500936,"1":0.1477066281622172,"2":-0.10507834709360991,"3":0.06381290921459697,"4":-0.18447260187833361,"5":0.030003253587269026,"6":0.06600676095385555,"7":-0.061128290492680884,"8":-0.15155898135696183,"9":-0.20508374718468272,"10":-0.03156258430891346,"11":0.09261793957116489,"12":-0.1830320711671149,"13":0.02263349983682253,"14":0.06410948274519535,"15":-0.18463341124543592,"16":-0.09758958236608213,"17":-0.012047529852223704,"18":-0.03836051878798756,"19":0.0341427726560768,"20":-0.13100192953614612,"21":0.11367477059118843,"22":-0.06028333662720211,"23":0.1372252872589537,"24":-0.14634412090650836,"25":0.11724766251157039,"26":0.03179986774961365,"27":0.19776564001009603,"28":-0.07353578168326436,"29":-0.1954768219629105,"30":-0.05387675640662635,"31":-0.09791259620841154,"32":-0.18088891613444585,"33":-0.04533943992388948,"34":-0.0741171945623717,"35":-0.025559701614941022}},"5":{"bias":0.06394382129071256,"weights":{"0":-0.16817216059216542,"1":0.04372528868463727,"2":0.014156768340502522,"3":-0.04148176670593001,"4":-0.012917429486808322,"5":-0.078231000489246,"6":0.0806912130720038,"7":0.16967512830932735,"8":-0.1164394401026337,"9":-0.10386747220216305,"10":-0.18437277156925413,"11":-0.13699097131033613,"12":0.16965142379036618,"13":0.16744573147064745,"14":-0.08753703350971674,"15":-0.2910874431461652,"16":-0.1697970918183036,"17":-0.06170917276773702,"18":0.021175456588473918,"19":0.11673282344487237,"20":0.09071883116341156,"21":-0.17362143559714874,"22":0.15705897420538834,"23":0.07321947464767119,"24":0.09616752034086842,"25":0.13225012526980698,"26":0.15967022961500552,"27":0.06997834197621582,"28":0.1609253256585666,"29":0.17736037964270404,"30":0.014225205974060195,"31":0.17088583893038653,"32":-0.057088204174470324,"33":0.3344134371155564,"34":0.07326646007943384,"35":0.23500031355595574}},"6":{"bias":0.1873758671479949,"weights":{"0":0.13205525825971212,"1":0.05310173973865969,"2":-0.16445128759631722,"3":0.08425677546148143,"4":-0.15984802999895692,"5":-0.17493349094028152,"6":-0.1525151709743398,"7":0.17011449226188577,"8":-0.1037221646491841,"9":-0.37717987390198204,"10":0.4410950338159252,"11":0.07626686966625178,"12":0.11512300166120967,"13":0.11327826520894559,"14":0.08851923298342326,"15":0.284729429579865,"16":0.2989630624344567,"17":0.03621392016257306,"18":0.10372701138767376,"19":0.038430870824520444,"20":0.03280221381659187,"21":0.7634981814587215,"22":0.10648484160490981,"23":0.0036130842036877484,"24":0.1957410494759552,"25":-0.10739677786066468,"26":0.06946409583755227,"27":0.6228501120228227,"28":-0.6529364155864888,"29":-0.10432510317845782,"30":-0.08246199249752717,"31":0.11940363280505258,"32":0.13624880257200736,"33":-0.38048122923158284,"34":-0.40702006479487657,"35":-0.4182519544030271}},"7":{"bias":-0.12623472871967442,"weights":{"0":-0.015811426245088744,"1":0.16754098443511048,"2":0.12417631293334595,"3":-0.17425017678560237,"4":-0.04554818266031978,"5":-0.11367384658051903,"6":0.10717611098816024,"7":0.09412062453045184,"8":0.1859070436994039,"9":0.17866828355062764,"10":-0.019882208538670672,"11":0.029059684616948057,"12":0.14761928919585643,"13":-0.16698197601732995,"14":-0.07188674591807666,"15":0.12458799546649492,"16":-0.14930108836809539,"17":-0.17392900896712857,"18":0.15243716850007694,"19":0.06968492752574061,"20":0.19429251949029785,"21":-0.043204942496621226,"22":0.23127895461881948,"23":-0.0670559298248253,"24":0.12960928987123202,"25":0.13546475025565935,"26":0.13507696807977346,"27":0.027795439567375527,"28":0.10287103003627035,"29":-0.09121639592661455,"30":0.15661025428645542,"31":-0.08552583557483266,"32":0.049564289254819115,"33":0.08327979364884609,"34":-0.13812994045112842,"35":0.17869553978501418}},"8":{"bias":0.13267522357092748,"weights":{"0":0.1893073858218765,"1":-0.0949267909291528,"2":-0.15776358593804066,"3":0.5548914135413034,"4":-0.5877171698215292,"5":0.9206889470853479,"6":0.0729056256036989,"7":0.19249437387693866,"8":0.15686202650546918,"9":0.5047898605912077,"10":-0.4098865210243794,"11":1.0018333547661744,"12":-0.07082757005694043,"13":-0.14137894595765058,"14":0.1834616344526025,"15":0.1516325873208753,"16":-0.2295715292525862,"17":0.21177725228247998,"18":0.07291671732539651,"19":0.11510129602456214,"20":0.1940341743481111,"21":0.07675599447454132,"22":-0.17413345390862653,"23":0.08570488017633106,"24":-0.1149170018055859,"25":-0.1918051803646859,"26":-0.057985094701272576,"27":0.14941576768013043,"28":0.14402683639902228,"29":-0.14012865937641744,"30":0.03172759141885141,"31":0.06465607732592388,"32":-0.12006723172014583,"33":0.2030094398187546,"34":0.04826843304221714,"35":-0.00937972806727362}},"9":{"bias":0.0706462430521058,"weights":{"0":0.17757251811155383,"1":0.02558639681950878,"2":0.1389865247423984,"3":-0.12580561577319696,"4":-0.018980483895520248,"5":-0.29163609484062364,"6":0.11026944966112326,"7":-0.10023278393146634,"8":-0.06750143301489347,"9":-0.09968412019768373,"10":0.16406659968492576,"11":-0.3277376914544243,"12":-0.06342617328105217,"13":0.0644559302277711,"14":-0.05308683462231456,"15":-0.21666508616010538,"16":0.049610226561263196,"17":-0.372927797826592,"18":0.13300451132411012,"19":0.16084332712135263,"20":0.04704077425389059,"21":-0.11476121115970257,"22":0.07086475253901012,"23":-0.11091826748753365,"24":0.05295224008388038,"25":-0.07197449561712643,"26":-0.16212507224335607,"27":-0.1558858758932702,"28":0.1762726375525593,"29":0.2926365656998104,"30":0.13734750446049107,"31":0.15420498383089182,"32":0.07089139724074482,"33":0.32537417294315,"34":-0.00506928907225165,"35":0.17433687167041445}},"10":{"bias":0.13040148102087967,"weights":{"0":-0.009188666045278593,"1":-0.022108224980948974,"2":-0.1879840530199846,"3":-0.0104053471359281,"4":0.10511276616410728,"5":-0.049790833308487326,"6":-0.14699474705489893,"7":0.05929622649167274,"8":0.09260204326685696,"9":0.31060635467877173,"10":-0.1321934238000439,"11":-0.11980672944757845,"12":-0.1643043710649914,"13":0.010817709541225136,"14":0.15575544177325135,"15":-0.18614103411179825,"16":-0.24464983240560684,"17":-0.05890358735486604,"18":0.14152805810557947,"19":0.17622775397917487,"20":0.16094649726759658,"21":-0.17274821702927443,"22":-0.026081201613983866,"23":0.039618169252059895,"24":-0.07598976951242277,"25":-0.08508342057059239,"26":-0.04909573188054811,"27":-0.14747935845517163,"28":0.010670256232151171,"29":0.062014535821480955,"30":-0.1551090221718214,"31":0.023981736584059856,"32":0.05850590240403692,"33":0.13933772249464146,"34":-0.06354121032840411,"35":0.057577765809307534}},"11":{"bias":-0.11894819302873283,"weights":{"0":0.11353028280526338,"1":0.15473291697045416,"2":0.17388193773699287,"3":0.031364289207159037,"4":0.1764586898841859,"5":0.0744707044636737,"6":0.01174033879471558,"7":-0.1202895891396124,"8":-0.10718534809083576,"9":0.05691891757846375,"10":-0.17596796436802561,"11":-0.19622898785881976,"12":0.020413395953314116,"13":0.04699665840664731,"14":-0.1330785165090694,"15":0.07016036363801753,"16":-0.15335546020744587,"17":-0.145143198634486,"18":0.0025593024223629335,"19":0.16533131191327738,"20":-0.1317068161839858,"21":-0.22434276522392957,"22":-0.01607332668826732,"23":0.09594233293295501,"24":-0.05416897842309044,"25":-0.033221426963012037,"26":-0.006063524590215119,"27":-0.29488704187956033,"28":-0.007311459953019411,"29":0.19672025050515962,"30":0.12862007500514944,"31":-0.059410527824143654,"32":0.18380295123056323,"33":0.02303409868216407,"34":0.2081741403417522,"35":0.05817537294663033}},"12":{"bias":-0.14569047050271683,"weights":{"0":0.1470619569001806,"1":-0.1758952539967099,"2":0.14927988931309544,"3":-0.13875089660794437,"4":0.002197887662279973,"5":0.012143197953743622,"6":-0.15244015995182747,"7":0.018718519919018267,"8":0.18244616864567706,"9":0.06942452504581624,"10":0.16595641379142437,"11":-0.04564593171016844,"12":0.18542440218725434,"13":-0.013834316631440706,"14":-0.18216553968034638,"15":0.134731639085548,"16":0.07841309719132027,"17":-0.09347435509763147,"18":0.19384323842560755,"19":0.09798539734045283,"20":-0.15171109603188432,"21":0.10518831322755626,"22":0.06800470318087332,"23":-0.025792922756480346,"24":0.19708529780236186,"25":-0.07739649591041207,"26":-0.11896446672586787,"27":-0.2819569437052984,"28":-0.023211237540815714,"29":-0.13449837682751647,"30":-0.009512078153234094,"31":0.16157840183968822,"32":-0.059830422327523385,"33":-0.1765562751547098,"34":-0.04980285053155247,"35":-0.14008065382118326}},"13":{"bias":0.0937373462750842,"weights":{"0":0.03368199104293735,"1":0.093785258284001,"2":0.11553047661015006,"3":0.08559370271435428,"4":0.0836629782656202,"5":0.15657483239454267,"6":0.12222952798166194,"7":-0.00897932107726086,"8":-0.023366952839608657,"9":0.11341807554455896,"10":-0.043589579761406295,"11":-0.12078654676842075,"12":0.15072816511820006,"13":0.14340598687730444,"14":0.08439575680557074,"15":-0.31518299518532567,"16":0.17562468729337788,"17":-0.2713840748179719,"18":-0.0994562150916008,"19":0.18256435781272723,"20":-0.1689052706175105,"21":-0.21361468714874282,"22":-0.17930090199749624,"23":0.10375346502279893,"24":-0.08508110119950577,"25":0.04944327616875561,"26":0.059016182076310604,"27":0.10021855027299416,"28":-0.003909747942648749,"29":0.36572050817235235,"30":-0.01564897669233639,"31":0.11384980321384008,"32":-0.09612012091690961,"33":0.024054144922310523,"34":-0.17808988354284647,"35":-0.11013371408840557}},"14":{"bias":-0.07228573553762004,"weights":{"0":-0.009535604820545246,"1":-0.12968596469346652,"2":-0.040563625740521275,"3":-0.11761264242819254,"4":-0.10840838724748221,"5":0.04738640755769053,"6":-0.08251940298265877,"7":0.07544836090213612,"8":0.14394805692183246,"9":0.16821064387561546,"10":-0.1393477849966418,"11":0.12911946884803974,"12":0.0923722907793523,"13":0.15911994183369005,"14":0.11287587021421429,"15":0.17282943578974092,"16":-0.06840242441674155,"17":-0.08025084029983869,"18":0.07635490594850067,"19":0.05230547806881733,"20":0.023339033460857805,"21":-0.07755074290933586,"22":0.17398407238574098,"23":0.16206922009972843,"24":-0.034296957803045966,"25":-0.14269445635385478,"26":0.051594846703967655,"27":-0.1797173232373997,"28":0.00829510202813212,"29":0.0270105432666421,"30":-0.014920522818320842,"31":0.19667758621133724,"32":-0.0027984978349318056,"33":-0.02998636173363277,"34":-0.1083012441755967,"35":-0.011142904206096975}},"15":{"bias":-0.06352816023415164,"weights":{"0":-0.007367309404662125,"1":-0.1728413352480045,"2":0.0627470161845209,"3":0.11883096208442705,"4":0.021068862832737918,"5":0.23409258292142565,"6":-0.16924552305975105,"7":-0.032272797326792495,"8":-0.14240994980473481,"9":0.07526213364620979,"10":-0.15308621762615235,"11":0.10677909613017153,"12":0.13798466239663734,"13":-0.06792438366299794,"14":0.03683143389573716,"15":0.23474765186603236,"16":-0.41875366016525145,"17":-0.04377335397107503,"18":0.0776150851728334,"19":-0.1495954314241067,"20":-0.18779515979536238,"21":-0.25393993097416656,"22":-0.06478156778502585,"23":-0.19589528695014286,"24":-0.059303530378052326,"25":-0.08715355426329588,"26":-0.03698576575281558,"27":-0.28280518309077435,"28":0.0544589710186704,"29":0.34520221668208434,"30":0.19699225605798942,"31":-0.10100128579226542,"32":-0.07461671047875713,"33":0.32434248783134767,"34":0.07089404543510401,"35":0.13307644288622722}},"16":{"bias":-0.17737102222755824,"weights":{"0":-0.1950643280322065,"1":0.17789045054062602,"2":-0.18238546656792495,"3":-0.3036150193902088,"4":0.025143501756584915,"5":-0.4666443082357512,"6":-0.06096966537113896,"7":-0.09471071806924143,"8":0.1952868522894867,"9":-0.14634166967056317,"10":0.04318026163910536,"11":-0.48988057809537805,"12":-0.17031945169612597,"13":0.03862706570752915,"14":0.14510648326796147,"15":-0.12373552627182867,"16":0.08508034179695363,"17":0.00783330950592902,"18":-0.1764008074358319,"19":-0.1369991057772315,"20":-0.1339374557401648,"21":-0.049766901584628806,"22":0.21699791598227713,"23":0.006944512711243347,"24":-0.11598663716231898,"25":-0.06793001991870787,"26":0.030724365391785104,"27":-0.10831478018688843,"28":0.24428624352068315,"29":-0.04462344097744336,"30":0.17805267432582464,"31":0.13056845875534817,"32":-0.038195123925260796,"33":-0.021704926906860197,"34":-0.17290902016791745,"35":-0.0431756463303325}},"17":{"bias":0.19529644421710002,"weights":{"0":0.15123227753418336,"1":0.07819014875633866,"2":-0.04994339703472292,"3":0.019681686895799348,"4":-0.12224871355184971,"5":-0.19781568182999915,"6":-0.04297902377580449,"7":0.09147009478858083,"8":0.007253505349416001,"9":0.09764826936753022,"10":0.17227317515945714,"11":-0.1309049355900779,"12":-0.07835894085208449,"13":0.1412581457868384,"14":-0.18885724822099756,"15":0.12400358028644377,"16":-0.04110686878279316,"17":0.07248006927299037,"18":-0.11653258579702483,"19":-0.07336882247010838,"20":0.008438468748831073,"21":0.17342741840791956,"22":-0.1061833912349695,"23":-0.0341594845908891,"24":0.11275721235015959,"25":0.003753998651598085,"26":-0.03365329754866177,"27":0.04358843327986145,"28":0.05698360029910912,"29":-0.13632714913087285,"30":-0.02915066992761331,"31":-0.11461925497861027,"32":-0.13292066113874676,"33":0.12858893309305575,"34":-0.11251812069354604,"35":-0.1871035591018016}}},{"none":{"bias":-0.7192047910577624,"weights":{"0":-0.4026526080708881,"1":-0.04324329123762416,"2":-0.25559391368802686,"3":-0.27879573166997074,"4":-0.3519401106101132,"5":-0.2181391103649432,"6":-0.03542630176633472,"7":-0.3614701779529204,"8":-0.3359023523495006,"9":-0.3705570112606349,"10":-0.31226100252985795,"11":-0.304475003359106,"12":-0.013114245400047514,"13":-0.28237815428179575,"14":-0.5491989024291255,"15":-0.4131867648120877,"16":-0.14119259534569198,"17":-0.04255975654721119}},"mic":{"bias":-0.004156126511973359,"weights":{"0":-0.5270612028844657,"1":-0.25536680673171785,"2":0.6368643058021197,"3":0.2959517681625267,"4":0.7422507700556255,"5":-0.9316994918829703,"6":-0.11857462577144307,"7":-0.595147227979302,"8":0.12367059762864482,"9":-0.6973181853123337,"10":-0.23885595668385542,"11":-0.5510622963294635,"12":-0.8184181612402586,"13":-0.4145876008219136,"14":0.48651624458741866,"15":0.2110571334896934,"16":-0.534274634746586,"17":-0.3824556622595564}},"stop":{"bias":-0.6607535064220864,"weights":{"0":-0.41913905522812206,"1":0.05553948795924641,"2":-0.28587103084381044,"3":-0.4822589713758312,"4":-0.24508738924862078,"5":-0.28023078326882234,"6":-0.0371746070059433,"7":-0.25807511363731683,"8":-0.43252477380164217,"9":-0.3258606798432949,"10":-0.3515933052309321,"11":-0.3679540077191523,"12":-0.0981618039934378,"13":-0.2137596668348453,"14":-0.244841815974896,"15":-0.49579631429088283,"16":-0.3106683723387808,"17":-0.06953791353626297}},"walking":{"bias":-0.7312853461630839,"weights":{"0":-0.31874489632423336,"1":0.051360241095348876,"2":-0.2537603115826185,"3":-0.2834989194396897,"4":-0.21524865323065204,"5":-0.30734985367999773,"6":-0.0010159550847336249,"7":-0.15972901924964217,"8":-0.4148318800990576,"9":-0.4368951301059209,"10":-0.2549770538125682,"11":-0.06106960288774041,"12":-0.2298643538098879,"13":-0.3093415016437479,"14":-0.5654706313969723,"15":-0.5578462889540341,"16":-0.01960128801520756,"17":-0.1673781209170491}},"circle":{"bias":-0.09594276305797295,"weights":{"0":0.569424283570248,"1":0.44213646881428925,"2":-0.5792869242993055,"3":-0.34583835063356344,"4":-0.6432067082257953,"5":0.8821357318640348,"6":0.17685317195501454,"7":0.7098666983971632,"8":-0.335900094953715,"9":0.6243366757001173,"10":0.29878880573210104,"11":0.5418581411475665,"12":0.6204821600095718,"13":0.4225552816005833,"14":-0.27048599914369564,"15":-0.24492146850334415,"16":0.38318987464034665,"17":0.510339539087146}}}],"outputLookup":true,"inputLookup":false}